{"learner":{"attributes":{"scikit_learn":"{\"_estimator_type\": \"classifier\"}"},"feature_names":[],"feature_types":[],"gradient_booster":{"model":{"cats":{"enc":[],"feature_segments":[],"sorted_idx":[]},"gbtree_model_param":{"num_parallel_tree":"1","num_trees":"300"},"iteration_indptr":[0,1,2,3,4,5,6,7,8,9,10,11,12,13,14,15,16,17,18,19,20,21,22,23,24,25,26,27,28,29,30,31,32,33,34,35,36,37,38,39,40,41,42,43,44,45,46,47,48,49,50,51,52,53,54,55,56,57,58,59,60,61,62,63,64,65,66,67,68,69,70,71,72,73,74,75,76,77,78,79,80,81,82,83,84,85,86,87,88,89,90,91,92,93,94,95,96,97,98,99,100,101,102,103,104,105,106,107,108,109,110,111,112,113,114,115,116,117,118,119,120,121,122,123,124,125,126,127,128,129,130,131,132,133,134,135,136,137,138,139,140,141,142,143,144,145,146,147,148,149,150,151,152,153,154,155,156,157,158,159,160,161,162,163,164,165,166,167,168,169,170,171,172,173,174,175,176,177,178,179,180,181,182,183,184,185,186,187,188,189,190,191,192,193,194,195,196,197,198,199,200,201,202,203,204,205,206,207,208,209,210,211,212,213,214,215,216,217,218,219,220,221,222,223,224,225,226,227,228,229,230,231,232,233,234,235,236,237,238,239,240,241,242,243,244,245,246,247,248,249,250,251,252,253,254,255,256,257,258,259,260,261,262,263,264,265,266,267,268,269,270,271,272,273,274,275,276,277,278,279,280,281,282,283,284,285,286,287,288,289,290,291,292,293,294,295,296,297,298,299,300],"tree_info":[0,0,0,0,0,0,0,0,0,0,0,0,0,0,0,0,0,0,0,0,0,0,0,0,0,0,0,0,0,0,0,0,0,0,0,0,0,0,0,0,0,0,0,0,0,0,0,0,0,0,0,0,0,0,0,0,0,0,0,0,0,0,0,0,0,0,0,0,0,0,0,0,0,0,0,0,0,0,0,0,0,0,0,0,0,0,0,0,0,0,0,0,0,0,0,0,0,0,0,0,0,0,0,0,0,0,0,0,0,0,0,0,0,0,0,0,0,0,0,0,0,0,0,0,0,0,0,0,0,0,0,0,0,0,0,0,0,0,0,0,0,0,0,0,0,0,0,0,0,0,0,0,0,0,0,0,0,0,0,0,0,0,0,0,0,0,0,0,0,0,0,0,0,0,0,0,0,0,0,0,0,0,0,0,0,0,0,0,0,0,0,0,0,0,0,0,0,0,0,0,0,0,0,0,0,0,0,0,0,0,0,0,0,0,0,0,0,0,0,0,0,0,0,0,0,0,0,0,0,0,0,0,0,0,0,0,0,0,0,0,0,0,0,0,0,0,0,0,0,0,0,0,0,0,0,0,0,0,0,0,0,0,0,0,0,0,0,0,0,0,0,0,0,0,0,0,0,0,0,0,0,0,0,0,0,0,0,0,0,0,0,0,0,0,0,0,0,0,0,0],"trees":[{"base_weights":[-3.5009632E-4,1.3173857E0,-6.531605E-1,1.2632965E-1,1.999841E-1,-1.1040114E0,3.6217552E-1,1.8082743E-3,-1.9931676E0,1.889513E0,-1.4559703E0,6.637237E-1,-1.9999246E-1,-1.9948194E0,1.911701E-1,1.9712379E0,1.598899E0,-6.428366E-1,-1.9998392E-1,4.3461064E-1,1.9994889E-1,-1.9998935E-1,-1.9497269E0,1.99764E-1,1.826296E0,-9.2607665E-1,1.9951673E0,-1.9833719E0,1.4557055E0,4.2088658E-2,1.7296346E-1,1.9882105E-1,-1.9998495E-1,7.32175E-3,1.9976342E-1,-5.546031E-2,-1.9954905E-1,1.9997148E-1,1.8838823E-1,-1.8608524E-1,-1.9975449E-1,1.9010945E-1,-9.7537436E-2],"categories":[],"categories_nodes":[],"categories_segments":[],"categories_sizes":[],"default_left":[0,0,0,0,0,0,0,0,0,0,0,0,0,0,0,0,0,0,0,0,0,0,0,0,0,0,0,0,0,0,0,0,0,0,0,0,0,0,0,0,0,0,0],"id":0,"left_children":[1,3,5,-1,-1,7,9,11,13,15,17,19,-1,21,-1,23,25,27,-1,29,-1,-1,31,-1,33,35,37,39,41,-1,-1,-1,-1,-1,-1,-1,-1,-1,-1,-1,-1,-1,-1],"loss_changes":[4.447703E5,6.3202188E3,1.5827264E5,0E0,0E0,2.3542112E5,2.9524088E5,1.41397E5,8.598125E2,1.3691719E3,2.1464469E4,2.4542867E4,0E0,2.64375E1,0E0,1.6892188E2,1.2696629E4,5.4733758E4,0E0,1.21596E3,0E0,0E0,2.660293E3,0E0,2.090461E3,6.8287744E2,1.78125E0,1.6898438E1,8.213769E3,0E0,0E0,0E0,0E0,0E0,0E0,0E0,0E0,0E0,0E0,0E0,0E0,0E0,0E0],"parents":[2147483647,0,0,1,1,2,2,5,5,6,6,7,7,8,8,9,9,10,10,11,11,13,13,15,15,16,16,17,17,19,19,22,22,24,24,25,25,26,26,27,27,28,28],"right_children":[2,4,6,-1,-1,8,10,12,14,16,18,20,-1,22,-1,24,26,28,-1,30,-1,-1,32,-1,34,36,38,40,42,-1,-1,-1,-1,-1,-1,-1,-1,-1,-1,-1,-1,-1,-1],"split_conditions":[-2.5970554E-1,-3.238355E-1,-2.5970346E-1,1.2632965E-1,1.999841E-1,-2.5970542E-1,-2.5747362E-1,1.8826001E-3,-2.1124615E-1,-2.5930825E-1,-1.2925036E-1,-2.332148E-1,-1.9999246E-1,-3.1834334E-1,1.911701E-1,-2.5964516E-1,-2.1673831E-1,-1.7829317E-1,-1.9998392E-1,-2.597055E-1,1.9994889E-1,-1.9998935E-1,1.8826001E-3,1.99764E-1,-1.01402886E-1,-2.8264427E-1,3.627776E0,-2.551964E-1,3.627776E0,4.2088658E-2,1.7296346E-1,1.9882105E-1,-1.9998495E-1,7.32175E-3,1.9976342E-1,-5.546031E-2,-1.9954905E-1,1.9997148E-1,1.8838823E-1,-1.8608524E-1,-1.9975449E-1,1.9010945E-1,-9.7537436E-2],"split_indices":[3,0,3,0,0,3,3,2,0,3,3,0,0,0,0,3,0,0,0,3,0,0,2,0,0,0,0,3,0,0,0,0,0,0,0,0,0,0,0,0,0,0,0],"split_type":[0,0,0,0,0,0,0,0,0,0,0,0,0,0,0,0,0,0,0,0,0,0,0,0,0,0,0,0,0,0,0,0,0,0,0,0,0,0,0,0,0,0,0],"sum_hessian":[5.170335E5,1.712846E5,3.457489E5,1.5870867E5,1.2575917E4,2.3943144E5,1.0631748E5,1.06714484E5,1.3271694E5,5.7779574E4,4.8537902E4,8.0196484E4,2.6518E4,1.3266131E5,5.5625755E1,4.5092996E4,1.2686576E4,1.9454232E4,2.908367E4,6.8456086E4,1.1740396E4,1.1920443E5,1.3456893E4,3.813388E4,6.9591157E3,1.7207594E3,1.0965816E4,1.1871103E4,7.58313E3,6.773954E4,7.165473E2,1.6864256E2,1.328825E4,6.1972394E2,6.339392E3,1.2782594E3,4.425E2,1.0518995E4,4.468215E2,1.2445798E3,1.0626522E4,6.4091514E3,1.1739783E3],"tree_param":{"num_deleted":"0","num_feature":"4","num_nodes":"43","size_leaf_vector":"1"}},{"base_weights":[1.4656455E-4,1.1927757E0,-5.926899E-1,1.1433965E-1,1.818598E-1,-1.0006976E0,3.2768732E-1,1.1466399E-3,-1.8128535E0,1.717495E0,-1.3243259E0,5.980046E-1,-1.8186678E-1,-1.8143407E0,1.721406E-1,1.7918715E0,1.4530983E0,-5.814502E-1,-1.8185882E-1,3.901069E-1,1.8182735E-1,-1.8186103E-1,-1.776488E0,1.8164103E-1,1.6578823E0,-8.2106483E-1,1.8135302E0,-1.8032523E0,1.3200692E0,3.7723128E-2,1.5804784E-1,1.8079863E-1,-1.8186049E-1,-4.7036152E-5,1.8168947E-1,-4.7696386E-2,-1.814983E-1,1.8184833E-1,1.6922319E-1,-1.6810586E-1,-1.8172278E-1,1.7277479E-1,-8.7468214E-2],"categories":[],"categories_nodes":[],"categories_segments":[],"categories_sizes":[],"default_left":[0,0,0,0,0,0,0,0,0,0,0,0,0,0,0,0,0,0,0,0,0,0,0,0,0,0,0,0,0,0,0,0,0,0,0,0,0,0,0,0,0,0,0],"id":1,"left_children":[1,3,5,-1,-1,7,9,11,13,15,17,19,-1,21,-1,23,25,27,-1,29,-1,-1,31,-1,33,35,37,39,41,-1,-1,-1,-1,-1,-1,-1,-1,-1,-1,-1,-1,-1,-1],"loss_changes":[3.6296128E5,5.2653438E3,1.2876838E5,0E0,0E0,1.9331062E5,2.4182083E5,1.1553794E5,6.928125E2,1.1222656E3,1.7668328E4,2.0320104E4,0E0,1.8E1,0E0,1.4375E2,1.0299658E4,4.4672984E4,0E0,1.0483926E3,0E0,0E0,2.0168359E3,0E0,1.8250762E3,5.872123E2,3.4375E0,1.69375E1,6.731915E3,0E0,0E0,0E0,0E0,0E0,0E0,0E0,0E0,0E0,0E0,0E0,0E0,0E0,0E0],"parents":[2147483647,0,0,1,1,2,2,5,5,6,6,7,7,8,8,9,9,10,10,11,11,13,13,15,15,16,16,17,17,19,19,22,22,24,24,25,25,26,26,27,27,28,28],"right_children":[2,4,6,-1,-1,8,10,12,14,16,18,20,-1,22,-1,24,26,28,-1,30,-1,-1,32,-1,34,36,38,40,42,-1,-1,-1,-1,-1,-1,-1,-1,-1,-1,-1,-1,-1,-1],"split_conditions":[-2.5970554E-1,-3.238355E-1,-2.5970346E-1,1.1433965E-1,1.818598E-1,-2.5970542E-1,-2.5747362E-1,1.8826001E-3,-2.1124615E-1,-2.5930825E-1,-1.2925036E-1,-2.332148E-1,-1.8186678E-1,-3.1834334E-1,1.721406E-1,-2.5964516E-1,-2.1673831E-1,-1.8103924E-1,-1.8185882E-1,-2.597055E-1,1.8182735E-1,-1.8186103E-1,1.8826001E-3,1.8164103E-1,-1.01402886E-1,-2.8264427E-1,2.9083025E0,-2.551964E-1,3.627776E0,3.7723128E-2,1.5804784E-1,1.8079863E-1,-1.8186049E-1,-4.7036152E-5,1.8168947E-1,-4.7696386E-2,-1.814983E-1,1.8184833E-1,1.6922319E-1,-1.6810586E-1,-1.8172278E-1,1.7277479E-1,-8.7468214E-2],"split_indices":[3,0,3,0,0,3,3,2,0,3,3,0,0,0,0,3,0,0,0,3,0,0,2,0,0,0,0,3,0,0,0,0,0,0,0,0,0,0,0,0,0,0,0],"split_type":[0,0,0,0,0,0,0,0,0,0,0,0,0,0,0,0,0,0,0,0,0,0,0,0,0,0,0,0,0,0,0,0,0,0,0,0,0,0,0,0,0,0,0],"sum_hessian":[5.1335556E5,1.704515E5,3.4290406E5,1.5798856E5,1.24629375E4,2.375825E5,1.0532157E5,1.06369805E5,1.312127E5,5.7200137E4,4.8121434E4,8.009961E4,2.627019E4,1.3115798E5,5.47052E1,4.4637504E4,1.2562631E4,1.9226383E4,2.889505E4,6.8440664E4,1.1658946E4,1.17821336E5,1.3336655E4,3.7717438E4,6.920067E3,1.7184849E3,1.0844146E4,1.1705308E4,7.521075E3,6.77096E4,7.310617E2,1.543966E2,1.3182258E4,6.0556616E2,6.314501E3,1.2776381E3,4.408468E2,1.0405256E4,4.3889017E2,1.2137994E3,1.0491509E4,6.343055E3,1.1780203E3],"tree_param":{"num_deleted":"0","num_feature":"4","num_nodes":"43","size_leaf_vector":"1"}},{"base_weights":[2.2614872E-4,1.3681009E0,-5.7361436E-1,1.717733E-1,5.2001357E-2,-9.304616E-1,3.0489725E-1,-1.6395448E-1,-1.6778121E0,1.587972E0,-1.2233937E0,2.2694077E-1,-1.6825251E-1,-1.6822188E-1,-1.6603754E0,1.6568564E0,1.3427132E0,-5.36189E-1,-1.6824473E-1,-3.6388078E-1,1.8247439E0,-1.6649737E0,1.6396116E-1,1.6804379E-1,1.5279098E0,-3.8752046E-1,1.556067E0,-1.5742185E0,3.6331603E-1,-1.0629607E-2,-1.06321834E-1,1.9231722E-1,1.6714405E-1,-1.6474718E-1,-1.6824698E-1,3.8948637E-2,1.6167727E-1,-4.8448753E-2,-2.8135201E-2,2.0976761E-1,1.5462145E-1,-1.2557471E-1,-1.6109054E-1,-2.4696855E-2,1.2979953E-1],"categories":[],"categories_nodes":[],"categories_segments":[],"categories_sizes":[],"default_left":[0,0,0,0,0,0,0,0,0,0,0,0,0,0,0,0,0,0,0,0,0,0,0,0,0,0,0,0,0,0,0,0,0,0,0,0,0,0,0,0,0,0,0,0,0],"id":2,"left_children":[1,3,5,-1,-1,7,9,11,13,15,17,19,-1,-1,21,23,25,27,-1,29,31,33,-1,-1,35,37,39,41,43,-1,-1,-1,-1,-1,-1,-1,-1,-1,-1,-1,-1,-1,-1,-1,-1],"loss_changes":[3.9593003E5,4.420075E4,1.1139678E5,0E0,0E0,1.4475588E5,2.01278E5,7.40521E4,7.03125E0,9.404844E2,1.4777359E4,9.365897E4,0E0,0E0,3.955703E2,1.2989062E2,4.5192812E3,1.7519287E4,0E0,1.3047487E4,4.0091406E2,5.140625E0,0E0,0E0,6.817656E2,1.3705124E1,5.4908203E1,9.975195E1,5.7346055E3,0E0,0E0,0E0,0E0,0E0,0E0,0E0,0E0,0E0,0E0,0E0,0E0,0E0,0E0,0E0,0E0],"parents":[2147483647,0,0,1,1,2,2,5,5,6,6,7,7,8,8,9,9,10,10,11,11,14,14,15,15,16,16,17,17,19,19,20,20,21,21,24,24,25,25,26,26,27,27,28,28],"right_children":[2,4,6,-1,-1,8,10,12,14,16,18,20,-1,-1,22,24,26,28,-1,30,32,34,-1,-1,36,38,40,42,44,-1,-1,-1,-1,-1,-1,-1,-1,-1,-1,-1,-1,-1,-1,-1,-1],"split_conditions":[-1.2603487E0,-1.5032642E0,-2.5970346E-1,1.717733E-1,5.2001357E-2,-2.5970542E-1,-2.5747362E-1,1.8826001E-3,4.4006005E-1,-2.5930825E-1,-1.2925036E-1,6.829756E-1,-1.6825251E-1,-1.6822188E-1,-2.5970376E-1,-2.5964516E-1,3.1860226E-1,3.1860226E-1,-1.6824473E-1,4.4006005E-1,1.1688067E0,1.8826001E-3,1.6396116E-1,1.6804379E-1,3.1860226E-1,-2.5851372E-1,4.4006005E-1,-2.551964E-1,-2.3621395E-1,-1.0629607E-2,-1.06321834E-1,1.9231722E-1,1.6714405E-1,-1.6474718E-1,-1.6824698E-1,3.8948637E-2,1.6167727E-1,-4.8448753E-2,-2.8135201E-2,2.0976761E-1,1.5462145E-1,-1.2557471E-1,-1.6109054E-1,-2.4696855E-2,1.2979953E-1],"split_indices":[1,1,3,0,0,3,3,2,1,3,3,1,0,0,3,3,1,1,0,1,1,2,0,0,1,3,1,3,3,0,0,0,0,0,0,0,0,0,0,0,0,0,0,0,0],"split_type":[0,0,0,0,0,0,0,0,0,0,0,0,0,0,0,0,0,0,0,0,0,0,0,0,0,0,0,0,0,0,0,0,0,0,0,0,0,0,0,0,0,0,0,0,0],"sum_hessian":[5.0440484E5,1.4906777E5,3.553371E5,1.0555193E5,4.351583E4,2.5269395E5,1.0264314E5,1.24748766E5,1.2794519E5,5.5797977E4,4.6845164E4,9.921157E4,2.5537197E4,1.0205829E5,2.5886895E4,4.3558266E4,1.223971E4,1.8761426E4,2.808374E4,7.242986E4,2.6781705E4,2.5851367E4,3.5527542E1,3.6813797E4,6.7444683E3,1.3435017E3,1.0896209E4,8.709688E3,1.0051736E4,5.2934004E4,1.949586E4,1.6302906E4,1.0478798E4,1.29711045E4,1.2880263E4,4.8873007E2,6.2557383E3,7.003167E2,6.4318506E2,1.9088765E2,1.0705321E4,9.033274E2,7.806361E3,6.0815903E3,3.9701465E3],"tree_param":{"num_deleted":"0","num_feature":"4","num_nodes":"45","size_leaf_vector":"1"}},{"base_weights":[-1.057548E-3,9.949024E-1,-5.0643307E-1,9.4438024E-2,1.64729E-1,-8.516703E-1,2.837676E-1,1.9907143E-3,-1.5709451E0,1.4829968E0,-1.1394178E0,4.9474055E-1,-1.5768215E-1,-1.5723883E0,1.5796219E-1,1.5516897E0,1.2427894E0,-4.9317208E-1,-1.5767421E-1,3.188997E-1,1.5866868E0,-1.5769975E-1,-1.5316008E0,1.5747012E-1,1.4273144E0,-7.8505397E-1,1.5829846E-1,-1.5995607E0,1.2039369E0,3.0678613E-2,1.4638989E-1,1.5771148E-1,1.6836429E-1,1.7547813E-1,-1.5767689E-1,-4.1726236E-3,1.5792826E-1,-4.3385226E-2,-1.7933306E-1,-1.5620315E-1,-1.6736127E-1,1.5494068E-1,-6.561201E-2],"categories":[],"categories_nodes":[],"categories_segments":[],"categories_sizes":[],"default_left":[0,0,0,0,0,0,0,0,0,0,0,0,0,0,0,0,0,0,0,0,0,0,0,0,0,0,0,0,0,0,0,0,0,0,0,0,0,0,0,0,0,0,0],"id":3,"left_children":[1,3,5,-1,-1,7,9,11,13,15,17,19,-1,21,-1,23,25,27,-1,29,31,-1,33,-1,35,37,-1,39,41,-1,-1,-1,-1,-1,-1,-1,-1,-1,-1,-1,-1,-1,-1],"loss_changes":[2.4736777E5,5.451125E3,8.894212E4,0E0,0E0,1.3931761E5,1.6919081E5,8.071882E4,5.6234375E2,8.8578906E2,1.2811211E4,1.518298E4,0E0,2.071875E1,0E0,1.1746875E2,8.258031E3,3.4358805E4,0E0,9.4424365E2,7.5234375E0,0E0,1.8629258E3,0E0,1.4604971E3,6.0832825E2,0E0,2.8171875E1,4.64162E3,0E0,0E0,0E0,0E0,0E0,0E0,0E0,0E0,0E0,0E0,0E0,0E0,0E0,0E0],"parents":[2147483647,0,0,1,1,2,2,5,5,6,6,7,7,8,8,9,9,10,10,11,11,13,13,15,15,16,16,17,17,19,19,20,20,22,22,24,24,25,25,27,27,28,28],"right_children":[2,4,6,-1,-1,8,10,12,14,16,18,20,-1,22,-1,24,26,28,-1,30,32,-1,34,-1,36,38,-1,40,42,-1,-1,-1,-1,-1,-1,-1,-1,-1,-1,-1,-1,-1,-1],"split_conditions":[-2.5970554E-1,-3.238355E-1,-2.5970346E-1,9.4438024E-2,1.64729E-1,-2.5970542E-1,-2.5747362E-1,1.8826001E-3,-2.1124615E-1,-2.5930825E-1,-1.2925036E-1,-2.332148E-1,-1.5768215E-1,-3.1834334E-1,1.5796219E-1,-2.5964516E-1,-2.1673831E-1,-1.7829317E-1,-1.5767421E-1,-2.597055E-1,2.9083025E0,-1.5769975E-1,1.8826001E-3,1.5747012E-1,-2.0026182E-1,-2.8264427E-1,1.5829846E-1,-2.5792953E-1,3.627776E0,3.0678613E-2,1.4638989E-1,1.5771148E-1,1.6836429E-1,1.7547813E-1,-1.5767689E-1,-4.1726236E-3,1.5792826E-1,-4.3385226E-2,-1.7933306E-1,-1.5620315E-1,-1.6736127E-1,1.5494068E-1,-6.561201E-2],"split_indices":[3,0,3,0,0,3,3,2,0,3,3,0,0,0,0,3,0,0,0,3,0,0,2,0,0,0,0,0,0,0,0,0,0,0,0,0,0,0,0,0,0,0,0],"split_type":[0,0,0,0,0,0,0,0,0,0,0,0,0,0,0,0,0,0,0,0,0,0,0,0,0,0,0,0,0,0,0,0,0,0,0,0,0,0,0,0,0,0,0],"sum_hessian":[4.9145675E5,1.6543253E5,3.2602422E5,1.5354422E5,1.188831E4,2.2689439E5,9.9129836E4,1.0375511E5,1.2313927E5,5.3797777E4,4.5332062E4,7.907604E4,2.4679072E4,1.230834E5,5.5877647E1,4.1830035E4,1.1967742E4,1.829669E4,2.7035371E4,6.810938E4,1.0966657E4,1.1055296E5,1.2530432E4,3.5289273E4,6.540761E3,1.719112E3,1.024863E4,1.1076013E4,7.2206772E3,6.739761E4,7.117677E2,9.996956E3,9.6970123E2,1.6937009E2,1.2361062E4,6.1325854E2,5.9275024E3,1.276065E3,4.4304706E2,7.365369E3,3.7106433E3,6.089784E3,1.1308934E3],"tree_param":{"num_deleted":"0","num_feature":"4","num_nodes":"43","size_leaf_vector":"1"}},{"base_weights":[-2.104508E-3,1.5291499E-1,-4.1018268E-1,-6.1589265E-1,5.015246E-1,-8.203932E-1,5.0104016E-1,1.4522913E0,-1.4925595E-1,-2.67694E-1,-1.4887819E0,1.4767258E0,-1.4089097E0,1.5050719E0,5.6026584E-1,-2.5124406E-2,-1.4841646E0,-1.492791E-1,-1.4532275E0,1.4908586E-1,3.3888954E-1,-7.071938E-1,-1.5044714E0,1.5135939E0,1.241527E0,1.5618166E0,-8.521752E-1,-3.0114854E-2,1.7386328E-1,-1.4913829E-1,7.629322E-2,1.6285546E-1,-1.4912538E-1,6.51069E-2,-2.0703088E-1,-3.5494458E-2,-1.7288522E-1,-1.4822848E-1,-1.5682448E-1,1.5494587E-1,1.5005581E-1,1.3860957E-1,4.561645E-2,1.5307668E-1,1.8790278E-1,-3.1992342E-2,-1.2062196E-1],"categories":[],"categories_nodes":[],"categories_segments":[],"categories_sizes":[],"default_left":[0,0,0,0,0,0,0,0,0,0,0,0,0,0,0,0,0,0,0,0,0,0,0,0,0,0,0,0,0,0,0,0,0,0,0,0,0,0,0,0,0,0,0,0,0,0,0],"id":4,"left_children":[1,-1,3,5,7,9,11,13,-1,15,17,19,21,23,25,27,29,-1,31,-1,33,35,37,39,41,43,45,-1,-1,-1,-1,-1,-1,-1,-1,-1,-1,-1,-1,-1,-1,-1,-1,-1,-1,-1,-1],"loss_changes":[2.976289E5,0E0,7.053295E4,7.00881E4,1.3126455E5,9.5811766E4,8.84947E4,2.2064375E3,0E0,4.1891516E4,1.4578125E1,5.049453E2,1.0756562E3,9.753906E1,3.7085354E3,5.762572E4,3.8397266E2,0E0,1.4009062E3,0E0,2.9233917E2,6.926734E2,1.7673828E1,1.771875E1,1.574165E2,1.222998E1,2.0462347E2,0E0,0E0,0E0,0E0,0E0,0E0,0E0,0E0,0E0,0E0,0E0,0E0,0E0,0E0,0E0,0E0,0E0,0E0,0E0,0E0],"parents":[2147483647,0,0,2,2,3,3,4,4,5,5,6,6,7,7,9,9,10,10,11,11,12,12,13,13,14,14,15,15,16,16,18,18,20,20,21,21,22,22,23,23,24,24,25,25,26,26],"right_children":[2,-1,4,6,8,10,12,14,-1,16,18,20,22,24,26,28,30,-1,32,-1,34,36,38,40,42,44,46,-1,-1,-1,-1,-1,-1,-1,-1,-1,-1,-1,-1,-1,-1,-1,-1,-1,-1,-1,-1],"split_conditions":[-1.5032642E0,1.5291499E-1,-2.1124615E-1,-2.5970346E-1,-1.2925036E-1,-2.5970542E-1,-2.594943E-1,2.9083025E0,-1.4925595E-1,-3.238355E-1,-3.1834334E-1,-2.5964516E-1,-2.5747362E-1,1.0354749E0,-2.551964E-1,6.829756E-1,-2.8264427E-1,-1.492791E-1,-2.1399222E-1,1.4908586E-1,-2.3870696E-1,-2.8264427E-1,-2.5243738E-1,-1.2603487E0,-2.1314918E-1,-2.5747362E-1,-2.1314918E-1,-3.0114854E-2,1.7386328E-1,-1.4913829E-1,7.629322E-2,1.6285546E-1,-1.4912538E-1,6.51069E-2,-2.0703088E-1,-3.5494458E-2,-1.7288522E-1,-1.4822848E-1,-1.5682448E-1,1.5494587E-1,1.5005581E-1,1.3860957E-1,4.561645E-2,1.5307668E-1,1.8790278E-1,-3.1992342E-2,-1.2062196E-1],"split_indices":[1,0,0,3,3,3,3,0,0,0,0,3,3,0,3,1,0,0,0,0,0,0,0,1,3,3,3,0,0,0,0,0,0,0,0,0,0,0,0,0,0,0,0,0,0,0,0],"split_type":[0,0,0,0,0,0,0,0,0,0,0,0,0,0,0,0,0,0,0,0,0,0,0,0,0,0,0,0,0,0,0,0,0,0,0,0,0,0,0,0,0,0,0,0,0,0,0],"sum_hessian":[4.7630222E5,1.0022388E5,3.7607834E5,3.068448E5,6.923355E4,2.5935875E5,4.7486047E4,4.688117E4,2.2352375E4,1.4196634E5,1.1739241E5,3.1430303E4,1.6055743E4,4.426156E4,2.6196147E3,1.1836489E5,2.3601459E4,1.05459836E5,1.1932568E4,3.1044398E4,3.8590384E2,1.9254482E3,1.4130295E4,4.287053E4,1.3910254E3,1.5326904E3,1.0869244E3,1.0234842E5,1.6016474E4,2.3526223E4,7.523489E1,1.4493217E2,1.1787636E4,3.422814E2,4.3622437E1,1.4327943E3,4.9265396E2,1.0501196E4,3.6290984E3,1.1397053E4,3.1473479E4,1.1741279E3,2.1689738E2,1.4013466E3,1.3134378E2,4.3494882E2,6.5197565E2],"tree_param":{"num_deleted":"0","num_feature":"4","num_nodes":"47","size_leaf_vector":"1"}},{"base_weights":[-1.660834E-3,8.4468734E-1,-4.4457278E-1,7.982898E-2,1.4701699E-1,-7.4362916E-1,2.544392E-1,8.842368E-3,-1.4193892E0,1.333447E0,-1.020542E0,4.1898793E-1,-1.424398E-1,-1.4206011E0,1.3602553E-1,1.3995676E0,1.1037593E0,-4.3770704E-1,-1.4243084E-1,2.7092987E-1,1.4307691E0,-1.4244287E-1,-1.3866934E0,1.4219944E-1,1.2799553E0,-6.6263354E-1,1.426673E-1,-1.4310682E0,1.0549341E0,2.5937209E-2,1.3651052E-1,1.4243753E-1,1.495169E-1,1.5410875E-1,-1.4243504E-1,2.3190768E-3,1.4251548E-1,-3.74897E-2,-1.5568583E-1,-1.3045713E-1,-1.4458029E-1,1.373671E-1,-5.479172E-2],"categories":[],"categories_nodes":[],"categories_segments":[],"categories_sizes":[],"default_left":[0,0,0,0,0,0,0,0,0,0,0,0,0,0,0,0,0,0,0,0,0,0,0,0,0,0,0,0,0,0,0,0,0,0,0,0,0,0,0,0,0,0,0],"id":5,"left_children":[1,3,5,-1,-1,7,9,11,13,15,17,19,-1,21,-1,23,25,27,-1,29,31,-1,33,-1,35,37,-1,39,41,-1,-1,-1,-1,-1,-1,-1,-1,-1,-1,-1,-1,-1,-1],"loss_changes":[1.718258E5,4.5687344E3,6.2902727E4,0E0,0E0,1.0716131E5,1.240395E5,5.861584E4,3.7592188E2,7.401094E2,9.725258E3,1.1613542E4,0E0,1.2453125E1,0E0,9.988281E1,6.2299473E3,2.508229E4,0E0,8.549468E2,1.9472656E0,0E0,1.2474961E3,0E0,1.0942217E3,4.3387274E2,0E0,1.7044922E1,3.4541494E3,0E0,0E0,0E0,0E0,0E0,0E0,0E0,0E0,0E0,0E0,0E0,0E0,0E0,0E0],"parents":[2147483647,0,0,1,1,2,2,5,5,6,6,7,7,8,8,9,9,10,10,11,11,13,13,15,15,16,16,17,17,19,19,20,20,22,22,24,24,25,25,27,27,28,28],"right_children":[2,4,6,-1,-1,8,10,12,14,16,18,20,-1,22,-1,24,26,28,-1,30,32,-1,34,-1,36,38,-1,40,42,-1,-1,-1,-1,-1,-1,-1,-1,-1,-1,-1,-1,-1,-1],"split_conditions":[-2.5970554E-1,-3.238355E-1,-2.5970346E-1,7.982898E-2,1.4701699E-1,-2.5970542E-1,-2.5747362E-1,1.8826001E-3,-2.1124615E-1,-2.5930825E-1,-1.2925036E-1,-2.332148E-1,-1.424398E-1,-3.1834334E-1,1.3602553E-1,-2.5964516E-1,-2.1673831E-1,-9.0418555E-2,-1.4243084E-1,-2.597055E-1,3.627776E0,-1.4244287E-1,1.8826001E-3,1.4219944E-1,-1.01402886E-1,-2.8264427E-1,1.426673E-1,-2.551964E-1,3.627776E0,2.5937209E-2,1.3651052E-1,1.4243753E-1,1.495169E-1,1.5410875E-1,-1.4243504E-1,2.3190768E-3,1.4251548E-1,-3.74897E-2,-1.5568583E-1,-1.3045713E-1,-1.4458029E-1,1.373671E-1,-5.479172E-2],"split_indices":[3,0,3,0,0,3,3,2,0,3,3,0,0,0,0,3,0,0,0,3,0,0,2,0,0,0,0,3,0,0,0,0,0,0,0,0,0,0,0,0,0,0,0],"split_type":[0,0,0,0,0,0,0,0,0,0,0,0,0,0,0,0,0,0,0,0,0,0,0,0,0,0,0,0,0,0,0,0,0,0,0,0,0,0,0,0,0,0,0],"sum_hessian":[4.583741E5,1.5746936E5,3.0090472E5,1.4659723E5,1.0872126E4,2.1074305E5,9.016169E4,9.971241E4,1.1103065E5,4.883387E4,4.1327816E4,7.752737E4,2.2185037E4,1.1098275E5,4.7896748E1,3.7914316E4,1.0919557E4,1.691425E4,2.4413564E4,6.76318E4,9.895568E3,9.968868E4,1.1294066E4,3.1918793E4,5.995524E3,1.687514E3,9.232042E3,1.0155649E4,6.7586006E3,6.692609E4,7.057046E2,9.022867E3,8.7270026E2,1.4291252E2,1.1151154E4,6.2106866E2,5.3744556E3,1.2777795E3,4.0973453E2,1.0688807E3,9.086769E3,5.6376606E3,1.1209402E3],"tree_param":{"num_deleted":"0","num_feature":"4","num_nodes":"43","size_leaf_vector":"1"}},{"base_weights":[-1.2955052E-3,1.399688E-1,-3.7977278E-1,-5.826046E-1,2.45351E-1,-6.477119E-2,-1.3636754E0,1.2776406E0,-9.772417E-1,1.342631E-1,-1.3680449E-1,-1.3676572E-1,-1.3478853E0,1.34236E0,1.0541217E0,-4.1691333E-1,-1.3679497E-1,-1.5965916E-1,1.5154238E0,-1.3513762E0,1.3134532E-1,1.3652413E-1,1.2205848E0,-3.6326802E-1,1.2599412E0,-1.2485306E0,2.778851E-1,3.7348047E-3,-1.1082611E-1,1.6048464E-1,1.3552512E-1,-1.3335703E-1,-1.369282E-1,3.717776E-2,1.30168E-1,-4.3633755E-2,-2.8111672E-2,1.999396E-1,1.2436475E-1,-8.727142E-2,-1.2938151E-1,-1.732133E-2,9.953586E-2],"categories":[],"categories_nodes":[],"categories_segments":[],"categories_sizes":[],"default_left":[0,0,0,0,0,0,0,0,0,0,0,0,0,0,0,0,0,0,0,0,0,0,0,0,0,0,0,0,0,0,0,0,0,0,0,0,0,0,0,0,0,0,0],"id":6,"left_children":[1,-1,3,5,7,9,11,13,15,17,-1,-1,19,21,23,25,-1,27,29,31,-1,-1,33,35,37,39,41,-1,-1,-1,-1,-1,-1,-1,-1,-1,-1,-1,-1,-1,-1,-1,-1],"loss_changes":[2.3343445E5,0E0,4.394811E4,1.05846414E5,1.07166164E5,4.0820453E4,4.71875E0,6.6460156E2,8.509793E3,5.5420496E4,0E0,0E0,1.97625E2,9.7796875E1,3.0175303E3,9.228824E3,0E0,2.1036344E4,3.409297E2,4.8867188E0,0E0,0E0,3.888506E2,7.7537537E0,1.0632422E2,1.2259863E2,2.8167148E3,0E0,0E0,0E0,0E0,0E0,0E0,0E0,0E0,0E0,0E0,0E0,0E0,0E0,0E0,0E0,0E0],"parents":[2147483647,0,0,2,2,3,3,4,4,5,5,6,6,7,7,8,8,9,9,12,12,13,13,14,14,15,15,17,17,18,18,19,19,22,22,23,23,24,24,25,25,26,26],"right_children":[2,-1,4,6,8,10,12,14,16,18,-1,-1,20,22,24,26,-1,28,30,32,-1,-1,34,36,38,40,42,-1,-1,-1,-1,-1,-1,-1,-1,-1,-1,-1,-1,-1,-1,-1,-1],"split_conditions":[-1.5032642E0,1.399688E-1,-2.5970346E-1,-2.5970542E-1,-2.5747362E-1,1.8826001E-3,4.4006005E-1,-2.5930825E-1,-1.2925036E-1,6.829756E-1,-1.3680449E-1,-1.3676572E-1,-2.5970376E-1,-2.5964516E-1,3.1860226E-1,3.1860226E-1,-1.3679497E-1,4.4006005E-1,1.1688067E0,1.2902644E0,1.3134532E-1,1.3652413E-1,3.1860226E-1,-2.5851372E-1,4.4006005E-1,-2.551964E-1,-2.3621395E-1,3.7348047E-3,-1.1082611E-1,1.6048464E-1,1.3552512E-1,-1.3335703E-1,-1.369282E-1,3.717776E-2,1.30168E-1,-4.3633755E-2,-2.8111672E-2,1.999396E-1,1.2436475E-1,-8.727142E-2,-1.2938151E-1,-1.732133E-2,9.953586E-2],"split_indices":[1,0,3,3,3,2,1,3,3,1,0,0,3,3,1,1,0,1,1,1,0,0,1,3,1,3,3,0,0,0,0,0,0,0,0,0,0,0,0,0,0,0,0],"split_type":[0,0,0,0,0,0,0,0,0,0,0,0,0,0,0,0,0,0,0,0,0,0,0,0,0,0,0,0,0,0,0,0,0,0,0,0,0,0,0,0,0,0,0],"sum_hessian":[4.402406E5,9.3635125E4,3.4660547E5,2.6169442E5,8.491105E4,1.573655E5,1.0432893E5,4.603858E4,3.8872473E4,1.3651761E5,2.0847895E4,8.324966E4,2.1079273E4,3.5697453E4,1.0341124E4,1.5970571E4,2.29019E4,1.1256396E5,2.3953645E4,2.105215E4,2.7122116E1,3.004235E4,5.655105E3,1.3111359E3,9.029987E3,7.269169E3,8.701402E3,9.3207445E4,1.9356514E4,1.5365971E4,8.587674E3,1.05934E4,1.045875E4,4.9366006E2,5.161445E3,6.916426E2,6.1949335E2,1.920606E2,8.837927E3,7.838923E2,6.485277E3,5.342906E3,3.3584963E3],"tree_param":{"num_deleted":"0","num_feature":"4","num_nodes":"43","size_leaf_vector":"1"}},{"base_weights":[-2.5529326E-3,1.3329981E-1,-3.5808897E-1,-5.458193E-1,2.3480791E-1,-6.062143E-2,-1.3163506E0,1.2272252E0,-9.315754E-1,1.2108625E-1,-1.3209766E-1,-1.3205908E-1,-1.2996219E0,1.3184474E-1,1.0586714E0,-3.8970178E-1,-1.3208744E-1,-1.4361848E-1,1.4412559E0,-1.3030385E0,1.2670635E-1,-1.4486024E-1,1.2205743E0,-1.1936258E0,2.5747964E-1,3.3532951E-3,-9.871657E-2,1.5151514E-1,1.3072439E-1,-1.2840973E-1,-1.3220322E-1,4.7163684E-2,-2.8182914E-2,1.7958492E-1,1.2094233E-1,-8.065231E-2,-1.2420863E-1,-1.5555029E-2,9.371985E-2],"categories":[],"categories_nodes":[],"categories_segments":[],"categories_sizes":[],"default_left":[0,0,0,0,0,0,0,0,0,0,0,0,0,0,0,0,0,0,0,0,0,0,0,0,0,0,0,0,0,0,0,0,0,0,0,0,0,0,0],"id":7,"left_children":[1,-1,3,5,7,9,11,13,15,17,-1,-1,19,-1,21,23,-1,25,27,29,-1,31,33,35,37,-1,-1,-1,-1,-1,-1,-1,-1,-1,-1,-1,-1,-1,-1],"loss_changes":[2.0016325E5,0E0,3.705526E4,9.453215E4,9.267665E4,3.5533348E4,5.21875E0,6.637344E2,7.7637246E3,4.7388504E4,0E0,0E0,1.7545312E2,0E0,2.9610605E3,8.006978E3,0E0,1.6880021E4,2.223086E2,5.4257812E0,0E0,1.523493E2,8.374609E1,1.2775293E2,2.3939004E3,0E0,0E0,0E0,0E0,0E0,0E0,0E0,0E0,0E0,0E0,0E0,0E0,0E0,0E0],"parents":[2147483647,0,0,2,2,3,3,4,4,5,5,6,6,7,7,8,8,9,9,12,12,14,14,15,15,17,17,18,18,19,19,21,21,22,22,23,23,24,24],"right_children":[2,-1,4,6,8,10,12,14,16,18,-1,-1,20,-1,22,24,-1,26,28,30,-1,32,34,36,38,-1,-1,-1,-1,-1,-1,-1,-1,-1,-1,-1,-1,-1,-1],"split_conditions":[-1.5032642E0,1.3329981E-1,-2.5970346E-1,-2.5970542E-1,-2.5747362E-1,1.8826001E-3,4.4006005E-1,-2.5964516E-1,-1.2925036E-1,6.829756E-1,-1.3209766E-1,-1.3205908E-1,-2.5970376E-1,1.3184474E-1,3.1860226E-1,3.1860226E-1,-1.3208744E-1,4.4006005E-1,1.1688067E0,1.8826001E-3,1.2670635E-1,-2.594943E-1,1.1688067E0,-2.551964E-1,-2.3621395E-1,3.3532951E-3,-9.871657E-2,1.5151514E-1,1.3072439E-1,-1.2840973E-1,-1.3220322E-1,4.7163684E-2,-2.8182914E-2,1.7958492E-1,1.2094233E-1,-8.065231E-2,-1.2420863E-1,-1.5555029E-2,9.371985E-2],"split_indices":[1,0,3,3,3,2,1,3,3,1,0,0,3,0,1,1,0,1,1,2,0,3,1,3,3,0,0,0,0,0,0,0,0,0,0,0,0,0,0],"split_type":[0,0,0,0,0,0,0,0,0,0,0,0,0,0,0,0,0,0,0,0,0,0,0,0,0,0,0,0,0,0,0,0,0,0,0,0,0,0,0],"sum_hessian":[4.2153944E5,8.862434E4,3.329151E5,2.5285356E5,8.006153E4,1.551548E5,9.769876E4,4.32566E4,3.6804934E4,1.3560525E5,1.954955E4,7.787999E4,1.9818768E4,2.8062305E4,1.5194296E4,1.5388016E4,2.1416916E4,1.1295729E5,2.264796E4,1.9792914E4,2.5853893E1,1.8016373E3,1.3392658E4,6.862555E3,8.52546E3,9.335333E4,1.9603959E4,1.4591671E4,8.0562905E3,9.944498E3,9.848416E3,3.2706674E2,1.4745706E3,2.5161835E2,1.314104E4,7.65486E2,6.0970693E3,5.303543E3,3.2219172E3],"tree_param":{"num_deleted":"0","num_feature":"4","num_nodes":"39","size_leaf_vector":"1"}},{"base_weights":[-1.757079E-3,1.276084E-1,-3.368056E-1,-5.1156026E-1,4.8525602E-1,-3.9423662E-1,-1.0998213E0,1.2614034E0,-9.3113434E-1,-5.181868E-1,1.4426823E-1,-7.960386E-1,-1.2815894E-1,1.4033438E-1,1.2054231E0,9.89447E-3,-1.0020052E0,-1.29484525E-2,-5.8594775E-1,-1.2818544E0,-1.7766717E-1,9.842677E-1,1.2394466E0,-5.874573E-2,-1.0301646E0,-1.12419985E-1,-5.2045166E-2,-1.2831391E-1,-7.915297E-2,1.2016477E-1,-5.604096E-2,1.0354985E-1,-2.3949768E-2,1.20669626E-1,1.2883018E-1,-9.905185E-2,-1.14082634E-1],"categories":[],"categories_nodes":[],"categories_segments":[],"categories_sizes":[],"default_left":[0,0,0,0,0,0,0,0,0,0,0,0,0,0,0,0,0,0,0,0,0,0,0,0,0,0,0,0,0,0,0,0,0,0,0,0,0],"id":8,"left_children":[1,-1,3,5,7,9,11,13,15,17,-1,19,-1,-1,21,-1,23,-1,25,27,29,31,33,-1,35,-1,-1,-1,-1,-1,-1,-1,-1,-1,-1,-1,-1],"loss_changes":[1.7241181E5,0E0,4.583424E4,1.8158914E4,6.1490445E4,4.9947336E4,2.41475E3,2.8542188E2,1.4456055E3,5.412551E3,0E0,4.9207256E3,0E0,0E0,1.9382422E2,0E0,2.1566016E2,0E0,6.168543E3,4.7626953E0,3.8060454E3,2.17229E2,3.438672E1,0E0,7.497266E1,0E0,0E0,0E0,0E0,0E0,0E0,0E0,0E0,0E0,0E0,0E0,0E0],"parents":[2147483647,0,0,2,2,3,3,4,4,5,5,6,6,7,7,8,8,9,9,11,11,14,14,16,16,18,18,19,19,20,20,21,21,22,22,24,24],"right_children":[2,-1,4,6,8,10,12,14,16,18,-1,20,-1,-1,22,-1,24,-1,26,28,30,32,34,-1,36,-1,-1,-1,-1,-1,-1,-1,-1,-1,-1,-1,-1],"split_conditions":[-1.5032642E0,1.276084E-1,-2.1124615E-1,-3.238355E-1,1.0354749E0,6.829756E-1,1.8826001E-3,-1.2603487E0,1.3924655E0,-1.2603487E0,1.4426823E-1,-3.046129E-1,-1.2815894E-1,1.4033438E-1,2.446034E-1,9.89447E-3,2.9083025E0,-1.29484525E-2,1.9714451E-1,-3.1559724E-1,-2.5243738E-1,1.3750622E-1,9.4760025E-1,-5.874573E-2,3.1860226E-1,-1.12419985E-1,-5.2045166E-2,-1.2831391E-1,-7.915297E-2,1.2016477E-1,-5.604096E-2,1.0354985E-1,-2.3949768E-2,1.20669626E-1,1.2883018E-1,-9.905185E-2,-1.14082634E-1],"split_indices":[1,0,0,0,0,1,2,1,0,1,0,0,0,0,0,0,0,0,1,0,0,0,0,0,1,0,0,0,0,0,0,0,0,0,0,0,0],"split_type":[0,0,0,0,0,0,0,0,0,0,0,0,0,0,0,0,0,0,0,0,0,0,0,0,0,0,0,0,0,0,0,0,0,0,0,0,0],"sum_hessian":[4.0269875E5,8.365277E4,3.1904597E5,2.6311347E5,5.5932523E4,2.1936473E5,4.374873E4,3.6132758E4,1.9799762E4,2.0549895E5,1.3865778E4,1.6379541E4,2.7369191E4,1.0213071E4,2.5919688E4,1.2745334E3,1.8525229E4,3.0506299E4,1.7499266E5,9.172337E3,7.207204E3,3.459924E3,2.2459764E4,1.1797317E3,1.7345498E4,1.898188E4,1.5601077E5,9.146754E3,2.5582481E1,1.5650366E3,5.6421675E3,3.3210483E3,1.3887595E2,1.3461455E4,8.998308E3,1.2777665E4,4.5678325E3],"tree_param":{"num_deleted":"0","num_feature":"4","num_nodes":"37","size_leaf_vector":"1"}},{"base_weights":[-9.016072E-4,1.2269819E-1,-3.1243172E-1,-4.7265774E-1,4.6493626E-1,-3.8784832E-1,-1.2477102E-1,1.2126021E0,-8.7970746E-1,-4.734681E-1,2.1885847E-1,1.3505113E-1,1.1587483E0,8.730073E-3,-9.49014E-1,-1.2430943E-2,-5.3510505E-1,1.3832141E-1,-7.5645554E-1,9.273996E-1,1.1947145E0,-5.3837676E-2,-9.777792E-1,-1.0721252E-1,-4.7293715E-2,-1.2490197E-1,-1.644123E-2,9.78288E-2,-3.165031E-2,1.1591064E-1,1.2482542E-1,-9.361116E-2,-1.0961087E-1],"categories":[],"categories_nodes":[],"categories_segments":[],"categories_sizes":[],"default_left":[0,0,0,0,0,0,0,0,0,0,0,0,0,0,0,0,0,0,0,0,0,0,0,0,0,0,0,0,0,0,0,0,0],"id":9,"left_children":[1,-1,3,5,7,9,-1,11,13,15,17,-1,19,-1,21,-1,23,-1,25,27,29,-1,31,-1,-1,-1,-1,-1,-1,-1,-1,-1,-1],"loss_changes":[1.4876483E5,0E0,3.8637316E4,1.6905207E4,5.329551E4,1.204257E4,0E0,2.5145703E2,1.2696826E3,4.37209E3,3.2559678E4,0E0,2.0282031E2,0E0,2.0827246E2,0E0,5.764297E3,0E0,4.5497715E3,2.0932153E2,3.898242E1,0E0,8.041699E1,0E0,0E0,0E0,0E0,0E0,0E0,0E0,0E0,0E0,0E0],"parents":[2147483647,0,0,2,2,3,3,4,4,5,5,7,7,8,8,9,9,10,10,12,12,14,14,16,16,18,18,19,19,20,20,22,22],"right_children":[2,-1,4,6,8,10,-1,12,14,16,18,-1,20,-1,22,-1,24,-1,26,28,30,-1,32,-1,-1,-1,-1,-1,-1,-1,-1,-1,-1],"split_conditions":[-1.5032642E0,1.2269819E-1,-2.1124615E-1,1.8826001E-3,1.0354749E0,6.829756E-1,-1.2477102E-1,-1.2603487E0,1.3924655E0,-1.2603487E0,-3.238355E-1,1.3505113E-1,2.446034E-1,8.730073E-3,2.9083025E0,-1.2430943E-2,1.9714451E-1,1.3832141E-1,-3.1559724E-1,1.4299838E-1,9.4760025E-1,-5.3837676E-2,3.1860226E-1,-1.0721252E-1,-4.7293715E-2,-1.2490197E-1,-1.644123E-2,9.78288E-2,-3.165031E-2,1.1591064E-1,1.2482542E-1,-9.361116E-2,-1.0961087E-1],"split_indices":[1,0,0,2,0,1,0,1,0,1,0,0,0,0,0,0,1,0,0,0,0,0,1,0,0,0,0,0,0,0,0,0,0],"split_type":[0,0,0,0,0,0,0,0,0,0,0,0,0,0,0,0,0,0,0,0,0,0,0,0,0,0,0,0,0,0,0,0,0],"sum_hessian":[3.8890256E5,7.870136E4,3.102012E5,2.5719105E5,5.3010145E4,2.3182528E5,2.5365766E4,3.4067562E4,1.894258E4,2.0315573E5,2.866955E4,9.5606045E3,2.4506959E4,1.2668223E3,1.7675758E4,3.0482527E4,1.726732E5,1.3068095E4,1.5601455E4,3.3009204E3,2.1206037E4,1.1584243E3,1.6517334E4,1.7913777E4,1.5475942E5,8.515597E3,7.085859E3,3.1713916E3,1.2952878E2,1.2749349E4,8.456689E3,1.2222354E4,4.29498E3],"tree_param":{"num_deleted":"0","num_feature":"4","num_nodes":"33","size_leaf_vector":"1"}},{"base_weights":[1.5947666E-5,1.1840501E-1,-2.8915814E-1,-4.3438044E-1,4.4309163E-1,-5.974134E-1,4.7170267E-1,1.2127496E0,-1.2406548E0,-1.893942E-1,-1.237599E0,1.2912837E0,-1.1794386E0,1.2546798E0,3.6346707E-1,-1.3251245E-1,-1.2311019E-1,-4.9514845E-2,-1.2094122E0,-1.2449293E0,-1.1687452E0,1.3065231E0,2.9302E-1,-5.806385E-1,-1.2812922E0,1.2657956E0,1.0372092E0,9.7537667E-1,-8.604382E-1,-2.1487104E-2,1.3336965E-1,-1.2171178E-1,4.82704E-2,-1.2257564E-1,-1.2499513E-1,1.5768145E-1,-1.2174243E-1,1.311408E-1,1.2717263E-1,5.8202036E-2,-2.0364642E-1,-2.16181E-2,-1.6483371E-1,-1.2391198E-1,-1.3858001E-1,1.3190088E-1,1.2393319E-1,1.1743937E-1,-6.9022286E-3,1.1393841E-1,1.9735193E-2,-3.4806725E-2,-8.9645416E-2],"categories":[],"categories_nodes":[],"categories_segments":[],"categories_sizes":[],"default_left":[0,0,0,0,0,0,0,0,0,0,0,0,0,0,0,0,0,0,0,0,0,0,0,0,0,0,0,0,0,0,0,0,0,0,0,0,0,0,0,0,0,0,0,0,0,0,0,0,0,0,0,0,0],"id":10,"left_children":[1,-1,3,5,7,9,11,13,15,17,19,21,23,25,27,-1,-1,29,31,33,35,37,39,41,43,45,47,49,51,-1,-1,-1,-1,-1,-1,-1,-1,-1,-1,-1,-1,-1,-1,-1,-1,-1,-1,-1,-1,-1,-1,-1,-1],"loss_changes":[1.2859278E5,0E0,3.209876E4,3.7210605E4,6.474139E4,5.576333E4,5.1983527E4,1.2204688E3,1.1015625E1,1.8603207E4,4.0484375E1,3.9015234E2,7.7643555E2,7.7671875E1,1.2099634E3,0E0,0E0,2.6226096E4,2.0560742E2,5.6953125E0,1.0727266E3,2.6289062E0,2.6191644E2,7.211824E2,4.6277344E1,4.2132812E1,2.4203394E2,1.3717957E2,9.628326E0,0E0,0E0,0E0,0E0,0E0,0E0,0E0,0E0,0E0,0E0,0E0,0E0,0E0,0E0,0E0,0E0,0E0,0E0,0E0,0E0,0E0,0E0,0E0,0E0],"parents":[2147483647,0,0,2,2,3,3,4,4,5,5,6,6,7,7,8,8,9,9,10,10,11,11,12,12,13,13,14,14,17,17,18,18,19,19,20,20,21,21,22,22,23,23,24,24,25,25,26,26,27,27,28,28],"right_children":[2,-1,4,6,8,10,12,14,16,18,20,22,24,26,28,-1,-1,30,32,34,36,38,40,42,44,46,48,50,52,-1,-1,-1,-1,-1,-1,-1,-1,-1,-1,-1,-1,-1,-1,-1,-1,-1,-1,-1,-1,-1,-1,-1,-1],"split_conditions":[-1.5032642E0,1.1840501E-1,-2.1124615E-1,-2.5970346E-1,-1.2925036E-1,-2.5970542E-1,-2.594943E-1,-2.1314918E-1,1.3924655E0,-3.238355E-1,-3.1834334E-1,-2.5964516E-1,-2.5747362E-1,-2.3621395E-1,2.9083025E0,-1.3251245E-1,-1.2311019E-1,6.829756E-1,-2.8264427E-1,1.9714451E-1,-2.1399222E-1,4.4006005E-1,-2.3870696E-1,-2.8264427E-1,-2.5792953E-1,3.1860226E-1,3.627776E0,1.0299827E0,3.627776E0,-2.1487104E-2,1.3336965E-1,-1.2171178E-1,4.82704E-2,-1.2257564E-1,-1.2499513E-1,1.5768145E-1,-1.2174243E-1,1.311408E-1,1.2717263E-1,5.8202036E-2,-2.0364642E-1,-2.16181E-2,-1.6483371E-1,-1.2391198E-1,-1.3858001E-1,1.3190088E-1,1.2393319E-1,1.1743937E-1,-6.9022286E-3,1.1393841E-1,1.9735193E-2,-3.4806725E-2,-8.9645416E-2],"split_indices":[1,0,0,3,3,3,3,3,0,0,0,3,3,3,0,0,0,1,0,1,0,1,0,0,0,1,0,0,0,0,0,0,0,0,0,0,0,0,0,0,0,0,0,0,0,0,0,0,0,0,0,0,0],"split_type":[0,0,0,0,0,0,0,0,0,0,0,0,0,0,0,0,0,0,0,0,0,0,0,0,0,0,0,0,0,0,0,0,0,0,0,0,0,0,0,0,0,0,0,0,0,0,0,0,0,0,0,0,0],"sum_hessian":[3.755698E5,7.371949E4,3.0185034E5,2.518942E5,4.9956125E4,2.1348233E5,3.841188E4,3.428457E4,1.5671553E4,1.3038401E5,8.309832E4,2.5670145E4,1.2741735E4,3.267108E4,1.6134918E3,1.5782793E3,1.4093273E4,1.1466109E5,1.572291E4,7.508737E4,8.0109497E3,2.5283855E4,3.8628873E2,1.8532318E3,1.0888503E4,3.1077744E4,1.5933348E3,1.0758218E3,5.3767E2,1.0241833E5,1.2242769E4,1.5651915E4,7.0994835E1,1.5636212E4,5.945116E4,1.3901372E2,7.8719355E3,2.2139236E4,3.14462E3,3.4432166E2,4.1967068E1,1.3825148E3,4.707171E2,7.76708E3,3.121423E3,1.0305902E4,2.0771842E4,1.4174894E3,1.7584546E2,8.88138E2,1.876838E2,3.6012478E1,5.0165753E2],"tree_param":{"num_deleted":"0","num_feature":"4","num_nodes":"53","size_leaf_vector":"1"}},{"base_weights":[3.9902862E-4,1.1467145E-1,-2.7353814E-1,-4.0887022E-1,4.3145043E-1,-5.602892E-1,4.568551E-1,1.177375E0,-1.2123657E0,-1.720519E-1,-1.2091252E0,1.2523345E0,-1.1322421E0,1.2194498E0,3.4868777E-1,-1.2831078E-1,-1.2043184E-1,-4.3072645E-2,-1.1851208E0,-1.2161671E0,-1.1427652E0,1.2685957E0,2.562683E-1,-5.0915015E-1,-1.2458776E0,1.2311556E0,9.895394E-1,1.1134855E0,-5.5747825E-1,-1.9183548E-2,1.2920138E-1,-1.1921847E-1,3.8135197E-2,-1.1996994E-1,-1.2204732E-1,1.4959447E-1,-1.1921006E-1,1.2727939E-1,1.2387257E-1,5.2444197E-2,-1.8325448E-1,-1.6372219E-2,-1.5564404E-1,-1.20876186E-1,-1.3350473E-1,1.2736697E-1,1.2098829E-1,1.1395637E-1,-9.9702515E-3,-1.9250235E-1,1.1503241E-1,7.858921E-3,-8.5863344E-2],"categories":[],"categories_nodes":[],"categories_segments":[],"categories_sizes":[],"default_left":[0,0,0,0,0,0,0,0,0,0,0,0,0,0,0,0,0,0,0,0,0,0,0,0,0,0,0,0,0,0,0,0,0,0,0,0,0,0,0,0,0,0,0,0,0,0,0,0,0,0,0,0,0],"id":11,"left_children":[1,-1,3,5,7,9,11,13,15,17,19,21,23,25,27,-1,-1,29,31,33,35,37,39,41,43,45,47,49,51,-1,-1,-1,-1,-1,-1,-1,-1,-1,-1,-1,-1,-1,-1,-1,-1,-1,-1,-1,-1,-1,-1,-1,-1],"loss_changes":[1.11917586E5,0E0,2.7445262E4,3.163616E4,5.6806902E4,5.1742645E4,4.5416855E4,1.1106992E3,6.6875E0,1.6792105E4,3.4546875E1,3.8748047E2,8.480137E2,8.040234E1,1.0687472E3,0E0,0E0,2.2641996E4,1.610586E2,3.46875E0,9.643154E2,1.375E0,2.1710011E2,6.691518E2,3.1933594E1,2.4554688E1,2.4105042E2,9.580823E1,1.3532193E2,0E0,0E0,0E0,0E0,0E0,0E0,0E0,0E0,0E0,0E0,0E0,0E0,0E0,0E0,0E0,0E0,0E0,0E0,0E0,0E0,0E0,0E0,0E0,0E0],"parents":[2147483647,0,0,2,2,3,3,4,4,5,5,6,6,7,7,8,8,9,9,10,10,11,11,12,12,13,13,14,14,17,17,18,18,19,19,20,20,21,21,22,22,23,23,24,24,25,25,26,26,27,27,28,28],"right_children":[2,-1,4,6,8,10,12,14,16,18,20,22,24,26,28,-1,-1,30,32,34,36,38,40,42,44,46,48,50,52,-1,-1,-1,-1,-1,-1,-1,-1,-1,-1,-1,-1,-1,-1,-1,-1,-1,-1,-1,-1,-1,-1,-1,-1],"split_conditions":[-1.5032642E0,1.1467145E-1,-2.1124615E-1,-2.5970346E-1,-1.2925036E-1,-2.5970542E-1,-2.594943E-1,-2.1314918E-1,1.3924655E0,-3.238355E-1,-3.1834334E-1,-2.5964516E-1,-2.5747362E-1,-2.3621395E-1,1.0299827E0,-1.2831078E-1,-1.2043184E-1,6.829756E-1,-2.8264427E-1,1.9714451E-1,-2.1399222E-1,4.4006005E-1,-2.3870696E-1,-2.8264427E-1,-3.0186683E-1,3.1860226E-1,3.627776E0,1.2652189E-1,3.627776E0,-1.9183548E-2,1.2920138E-1,-1.1921847E-1,3.8135197E-2,-1.1996994E-1,-1.2204732E-1,1.4959447E-1,-1.1921006E-1,1.2727939E-1,1.2387257E-1,5.2444197E-2,-1.8325448E-1,-1.6372219E-2,-1.5564404E-1,-1.20876186E-1,-1.3350473E-1,1.2736697E-1,1.2098829E-1,1.1395637E-1,-9.9702515E-3,-1.9250235E-1,1.1503241E-1,7.858921E-3,-8.5863344E-2],"split_indices":[1,0,0,3,3,3,3,3,0,0,0,3,3,3,0,0,0,1,0,1,0,1,0,0,0,1,0,0,0,0,0,0,0,0,0,0,0,0,0,0,0,0,0,0,0,0,0,0,0,0,0,0,0],"split_type":[0,0,0,0,0,0,0,0,0,0,0,0,0,0,0,0,0,0,0,0,0,0,0,0,0,0,0,0,0,0,0,0,0,0,0,0,0,0,0,0,0,0,0,0,0,0,0,0,0,0,0,0,0],"sum_hessian":[3.5640253E5,6.8742016E4,2.876605E5,2.4133367E5,4.6326844E4,2.054074E5,3.5926266E4,3.1866754E4,1.4460089E4,1.2851216E5,7.689524E4,2.3941635E4,1.198463E4,3.032652E4,1.5402334E3,1.4607416E3,1.2999347E4,1.13999336E5,1.4512827E4,6.950249E4,7.392751E3,2.3556787E4,3.8484915E2,1.8493995E3,1.013523E4,2.8853113E4,1.4734069E3,8.351467E2,7.050867E2,1.0257113E5,1.1428196E4,1.4447913E4,6.491339E1,1.446477E4,5.5037723E4,1.3514578E2,7.257605E3,2.0617455E4,2.939332E3,3.4172543E2,4.312372E1,1.391573E3,4.578265E2,7.1667173E3,2.9685127E3,9.602795E3,1.9250318E4,1.2949972E3,1.7840967E2,9.390001E0,8.257567E2,2.2680106E2,4.782856E2],"tree_param":{"num_deleted":"0","num_feature":"4","num_nodes":"53","size_leaf_vector":"1"}},{"base_weights":[-6.332043E-4,1.11031316E-1,-2.6039815E-1,-3.873794E-1,4.2147285E-1,-5.2768403E-1,4.417518E-1,1.1468834E0,-1.1880656E0,-1.5931012E-1,-1.1847615E0,1.2182429E0,-1.093945E0,1.1891373E0,3.2343295E-1,-1.24835074E-1,-1.1811353E-1,-4.0662013E-2,-1.1625521E0,-1.1914613E0,-1.1215559E0,1.2356979E0,2.2089468E-1,-4.7382438E-1,-1.2132837E0,1.2042058E0,9.895452E-1,1.0700508E0,-5.273533E-1,-1.7453061E-2,1.2566015E-1,-1.1705208E-1,4.0338702E-2,-1.1771081E-1,-1.1952054E-1,1.4256911E-1,-1.1695012E-1,1.2397231E-1,1.2068603E-1,4.8904017E-2,-1.6862683E-1,-1.6174942E-2,-1.47845E-1,-1.1797092E-1,-1.2927876E-1,1.2426138E-1,1.1842128E-1,1.1718005E-1,8.9104865E-3,-1.8188304E-1,1.1147656E-1,1.1877847E-2,-7.710129E-2],"categories":[],"categories_nodes":[],"categories_segments":[],"categories_sizes":[],"default_left":[0,0,0,0,0,0,0,0,0,0,0,0,0,0,0,0,0,0,0,0,0,0,0,0,0,0,0,0,0,0,0,0,0,0,0,0,0,0,0,0,0,0,0,0,0,0,0,0,0,0,0,0,0],"id":12,"left_children":[1,-1,3,5,7,9,11,13,15,17,19,21,23,25,27,-1,-1,29,31,33,35,37,39,41,43,45,47,49,51,-1,-1,-1,-1,-1,-1,-1,-1,-1,-1,-1,-1,-1,-1,-1,-1,-1,-1,-1,-1,-1,-1,-1,-1],"loss_changes":[9.755439E4,0E0,2.372275E4,2.686911E4,5.022183E4,4.781489E4,3.986307E4,1.0312617E3,4.109375E0,1.5067114E4,2.871875E1,3.8625E2,8.302412E2,8.363281E1,9.2070856E2,0E0,0E0,1.9657854E4,1.6751953E2,2.0390625E0,8.34375E2,1.0351562E0,1.9674681E2,5.683141E2,2.3603516E1,1.8664062E1,3.257069E2,1.01730774E2,1.06789215E2,0E0,0E0,0E0,0E0,0E0,0E0,0E0,0E0,0E0,0E0,0E0,0E0,0E0,0E0,0E0,0E0,0E0,0E0,0E0,0E0,0E0,0E0,0E0,0E0],"parents":[2147483647,0,0,2,2,3,3,4,4,5,5,6,6,7,7,8,8,9,9,10,10,11,11,12,12,13,13,14,14,17,17,18,18,19,19,20,20,21,21,22,22,23,23,24,24,25,25,26,26,27,27,28,28],"right_children":[2,-1,4,6,8,10,12,14,16,18,20,22,24,26,28,-1,-1,30,32,34,36,38,40,42,44,46,48,50,52,-1,-1,-1,-1,-1,-1,-1,-1,-1,-1,-1,-1,-1,-1,-1,-1,-1,-1,-1,-1,-1,-1,-1,-1],"split_conditions":[-1.5032642E0,1.11031316E-1,-2.1124615E-1,-2.5970346E-1,-1.2925036E-1,-2.5970542E-1,-2.594943E-1,-2.1314918E-1,1.3924655E0,-3.238355E-1,-3.1834334E-1,-2.5964516E-1,-2.5747362E-1,-2.435126E-1,1.0299827E0,-1.24835074E-1,-1.1811353E-1,6.829756E-1,-2.8539035E-1,1.9714451E-1,-2.1399222E-1,4.4006005E-1,-2.3870696E-1,-2.8264427E-1,-3.0186683E-1,3.1860226E-1,1.3924655E0,1.2652189E-1,2.9083025E0,-1.7453061E-2,1.2566015E-1,-1.1705208E-1,4.0338702E-2,-1.1771081E-1,-1.1952054E-1,1.4256911E-1,-1.1695012E-1,1.2397231E-1,1.2068603E-1,4.8904017E-2,-1.6862683E-1,-1.6174942E-2,-1.47845E-1,-1.1797092E-1,-1.2927876E-1,1.2426138E-1,1.1842128E-1,1.1718005E-1,8.9104865E-3,-1.8188304E-1,1.1147656E-1,1.1877847E-2,-7.710129E-2],"split_indices":[1,0,0,3,3,3,3,3,0,0,0,3,3,3,0,0,0,1,0,1,0,1,0,0,0,1,0,0,0,0,0,0,0,0,0,0,0,0,0,0,0,0,0,0,0,0,0,0,0,0,0,0,0],"split_type":[0,0,0,0,0,0,0,0,0,0,0,0,0,0,0,0,0,0,0,0,0,0,0,0,0,0,0,0,0,0,0,0,0,0,0,0,0,0,0,0,0,0,0,0,0,0,0,0,0,0,0,0,0],"sum_hessian":[3.3804194E5,6.4062066E4,2.7397988E5,2.3096831E5,4.301158E4,1.9754102E5,3.3427297E4,2.964915E4,1.336243E4,1.2657896E5,7.0962055E4,2.2201703E4,1.1225594E4,2.8201588E4,1.4475619E3,1.3592632E3,1.2003166E4,1.13193234E5,1.3385724E4,6.414476E4,6.817291E3,2.1819592E4,3.8211154E2,1.8124597E3,9.413134E3,2.6217266E4,1.9843224E3,7.7084216E2,6.767197E2,1.0260588E5,1.0587351E4,1.3318203E4,6.752037E1,1.3335457E4,5.0809305E4,1.2541633E2,6.691875E3,1.9110129E4,2.7094639E3,3.356614E2,4.6450134E1,1.3837693E3,4.2869046E2,6.629388E3,2.783746E3,8.954268E3,1.7262998E4,1.6500414E3,3.3428107E2,1.1144655E1,7.596975E2,1.8545265E2,4.912671E2],"tree_param":{"num_deleted":"0","num_feature":"4","num_nodes":"53","size_leaf_vector":"1"}},{"base_weights":[-1.2156221E-3,1.07821085E-1,-2.4758063E-1,-3.655755E-1,4.1021335E-1,-2.9435563E-1,-1.15282856E-1,1.0913405E0,-7.6147187E-1,-3.5335696E-1,1.9822739E-1,6.3369304E-1,1.1041025E0,9.94077E-3,-8.283607E-1,-4.310814E-3,-4.1753906E-1,1.2262835E-1,-6.507828E-1,7.201603E-1,-1.278802E-1,1.2085964E-1,1.0611367E0,-4.541314E-2,-8.560871E-1,-9.5347084E-2,-3.6548864E-2,-1.15223505E-1,-1.2041204E-2,5.0303765E-2,1.0930103E-1,8.811632E-2,1.0819824E-1,-8.1438415E-2,-9.764734E-2],"categories":[],"categories_nodes":[],"categories_segments":[],"categories_sizes":[],"default_left":[0,0,0,0,0,0,0,0,0,0,0,0,0,0,0,0,0,0,0,0,0,0,0,0,0,0,0,0,0,0,0,0,0,0,0],"id":13,"left_children":[1,-1,3,5,7,9,-1,11,13,15,17,19,21,-1,23,-1,25,-1,27,29,-1,-1,31,-1,33,-1,-1,-1,-1,-1,-1,-1,-1,-1,-1],"loss_changes":[8.531615E4,0E0,2.0273707E4,1.2417322E4,3.1706785E4,5.9028477E3,0E0,1.4603711E2,8.411123E2,3.6116484E3,1.8963818E4,1.1402368E2,1.0844922E2,0E0,1.4023242E2,0E0,4.1919805E3,0E0,3.1646738E3,5.247516E1,0E0,0E0,6.405469E1,0E0,6.2546875E1,0E0,0E0,0E0,0E0,0E0,0E0,0E0,0E0,0E0,0E0],"parents":[2147483647,0,0,2,2,3,3,4,4,5,5,7,7,8,8,9,9,10,10,11,11,12,12,14,14,16,16,18,18,19,19,22,22,24,24],"right_children":[2,-1,4,6,8,10,-1,12,14,16,18,20,22,-1,24,-1,26,-1,28,30,-1,-1,32,-1,34,-1,-1,-1,-1,-1,-1,-1,-1,-1,-1],"split_conditions":[-1.5032642E0,1.07821085E-1,-2.1124615E-1,1.8826001E-3,1.0354749E0,6.829756E-1,-1.15282856E-1,-4.648125E-2,1.3924655E0,-1.2603487E0,-3.238355E-1,-8.2180314E-2,-1.2603487E0,9.94077E-3,2.9083025E0,-4.310814E-3,1.9714451E-1,1.2262835E-1,-3.1559724E-1,-9.0418555E-2,-1.278802E-1,1.2085964E-1,2.446034E-1,-4.541314E-2,3.1860226E-1,-9.5347084E-2,-3.6548864E-2,-1.15223505E-1,-1.2041204E-2,5.0303765E-2,1.0930103E-1,8.811632E-2,1.0819824E-1,-8.1438415E-2,-9.764734E-2],"split_indices":[1,0,0,2,0,1,0,0,0,1,0,0,1,0,0,0,1,0,0,0,0,0,0,0,1,0,0,0,0,0,0,0,0,0,0],"split_type":[0,0,0,0,0,0,0,0,0,0,0,0,0,0,0,0,0,0,0,0,0,0,0,0,0,0,0,0,0,0,0,0,0,0,0],"sum_hessian":[3.208163E5,5.9615016E4,2.612013E5,2.2147384E5,3.9727453E4,2.0310139E5,1.8372451E4,2.5122969E4,1.4604482E4,1.8137648E5,2.1724898E4,6.8294507E2,2.4440023E4,1.0528956E3,1.3551587E4,3.1090465E4,1.5028602E5,9.826122E3,1.1898776E4,6.54E2,2.8945038E1,7.1132573E3,1.7326768E4,9.3597156E2,1.2615616E4,1.330236E4,1.3698366E5,6.1155264E3,5.78325E3,4.1479852E2,2.3920148E2,1.8030701E3,1.5523697E4,9.375589E3,3.2400266E3],"tree_param":{"num_deleted":"0","num_feature":"4","num_nodes":"35","size_leaf_vector":"1"}},{"base_weights":[1.5417694E-3,3.0202752E-1,-4.7888115E-1,3.9173794E-1,-1.1359843E-1,-1.1525337E0,2.6484904E-1,3.3473608E-1,1.1812685E0,-1.1538814E0,1.2056625E-1,1.0947957E0,-8.077774E-1,4.093402E-2,2.0580254E-1,1.167956E0,1.3635778E0,-1.1611587E0,-1.0819187E0,1.2109617E0,8.378577E-1,-3.7302208E-1,-1.1599545E0,1.9214632E-1,1.3916998E-1,1.1848171E-1,1.14420794E-1,1.11014426E-1,1.3761267E-1,-1.1639396E-1,-1.1356264E-1,1.4050311E-1,-1.13635615E-1,1.2164785E0,1.1231309E-1,-2.8638446E-1,1.1472442E0,-1.1822815E0,8.228803E-1,-1.1972426E0,-1.1480999E-1,1.9253679E-2,-1.576864E-1,1.22055285E-1,1.1866482E-1,8.030729E-4,-1.4111774E-1,1.1418301E-1,1.2112993E-1,-1.0126867E-1,-1.2031664E-1,1.1511934E-1,1.3510938E-2,-1.1711124E-1,-1.2353589E-1],"categories":[],"categories_nodes":[],"categories_segments":[],"categories_sizes":[],"default_left":[0,0,0,0,0,0,0,0,0,0,0,0,0,0,0,0,0,0,0,0,0,0,0,0,0,0,0,0,0,0,0,0,0,0,0,0,0,0,0,0,0,0,0,0,0,0,0,0,0,0,0,0,0,0,0],"id":14,"left_children":[1,3,5,7,-1,9,11,13,15,17,-1,19,21,-1,23,25,27,29,31,33,35,37,39,41,-1,-1,-1,-1,-1,-1,-1,-1,-1,43,-1,45,47,49,51,53,-1,-1,-1,-1,-1,-1,-1,-1,-1,-1,-1,-1,-1,-1,-1],"loss_changes":[4.468272E4,2.4565668E4,5.9671797E4,8.066256E3,0E0,2.0001562E2,5.039379E4,1.6079395E3,2.7699219E1,3.1453125E1,0E0,9.5153906E2,3.7804697E3,0E0,9.9210474E2,3.1503906E0,1.0655518E0,2.703125E0,7.801738E2,9.283203E0,3.4576177E3,1.0697793E4,4.65625E0,4.2150146E1,0E0,0E0,0E0,0E0,0E0,0E0,0E0,0E0,0E0,1.0625E0,0E0,7.106258E2,1.3203125E0,2.2131836E1,1.0072373E3,1.8071289E0,0E0,0E0,0E0,0E0,0E0,0E0,0E0,0E0,0E0,0E0,0E0,0E0,0E0,0E0,0E0],"parents":[2147483647,0,0,1,1,2,2,3,3,5,5,6,6,7,7,8,8,9,9,11,11,12,12,14,14,15,15,16,16,17,17,18,18,19,19,20,20,21,21,22,22,23,23,33,33,35,35,36,36,37,37,38,38,39,39],"right_children":[2,4,6,8,-1,10,12,14,16,18,-1,20,22,-1,24,26,28,30,32,34,36,38,40,42,-1,-1,-1,-1,-1,-1,-1,-1,-1,44,-1,46,48,50,52,54,-1,-1,-1,-1,-1,-1,-1,-1,-1,-1,-1,-1,-1,-1,-1],"split_conditions":[-2.5970542E-1,1.8826001E-3,-2.5970346E-1,-2.332148E-1,-1.1359843E-1,-2.1124615E-1,-2.5747362E-1,-2.5970554E-1,3.627776E0,-3.1834334E-1,1.2056625E-1,-2.5964516E-1,-1.2925036E-1,4.093402E-2,-2.597055E-1,-2.5970554E-1,-2.5970554E-1,-3.238355E-1,1.8826001E-3,-2.1124615E-1,-1.01402886E-1,-5.1973414E-2,1.3924655E0,-2.3596089E-1,1.3916998E-1,1.1848171E-1,1.14420794E-1,1.11014426E-1,1.3761267E-1,-1.1639396E-1,-1.1356264E-1,1.4050311E-1,-1.13635615E-1,-3.238355E-1,1.1231309E-1,-2.8264427E-1,1.0354749E0,-2.551964E-1,1.0354749E0,-2.1124615E-1,-1.1480999E-1,1.9253679E-2,-1.576864E-1,1.22055285E-1,1.1866482E-1,8.030729E-4,-1.4111774E-1,1.1418301E-1,1.2112993E-1,-1.0126867E-1,-1.2031664E-1,1.1511934E-1,1.3510938E-2,-1.1711124E-1,-1.2353589E-1],"split_indices":[3,2,3,0,0,0,3,3,0,0,0,3,3,0,3,3,3,0,2,0,0,0,0,0,0,0,0,0,0,0,0,0,0,0,0,0,0,3,0,0,0,0,0,0,0,0,0,0,0,0,0,0,0,0,0],"split_type":[0,0,0,0,0,0,0,0,0,0,0,0,0,0,0,0,0,0,0,0,0,0,0,0,0,0,0,0,0,0,0,0,0,0,0,0,0,0,0,0,0,0,0,0,0,0,0,0,0,0,0,0,0,0,0],"sum_hessian":[3.095203E5,1.9042027E5,1.1910006E5,1.7923916E5,1.1181113E4,6.2493996E4,5.6606066E4,1.6717128E5,1.2067868E4,6.245881E4,3.518624E1,3.191317E4,2.4692895E4,1.0589543E5,6.1275855E4,1.1253531E4,8.143368E2,5.6708895E4,5.749916E3,2.1974441E4,9.9387295E3,1.1051771E4,1.3641124E4,6.0579414E4,6.9644226E2,6.5524336E3,4.7010977E3,4.2640377E1,7.716964E2,5.109889E4,5.610003E3,1.22633804E2,5.627282E3,2.0663688E4,1.310754E3,2.1448594E3,7.79387E3,6.591415E3,4.4603564E3,3.2665142E3,1.0374609E4,6.0566934E4,1.2477979E1,1.8145432E4,2.5182556E3,1.7006945E3,4.4416495E2,7.2037983E3,5.9007166E2,7.281328E2,5.863282E3,3.0186875E3,1.441669E3,1.9567887E3,1.3097255E3],"tree_param":{"num_deleted":"0","num_feature":"4","num_nodes":"55","size_leaf_vector":"1"}},{"base_weights":[-8.53255E-4,1.0378132E-1,-2.3137328E-1,-3.6627448E-1,2.583147E-1,-3.470985E-2,-1.1354785E0,1.0673244E0,-7.8814334E-1,5.6158926E-2,-1.1213632E-1,-1.1455531E0,-1.0901021E0,1.1856933E0,8.0771136E-1,-3.5925287E-1,-1.14259005E-1,-8.013166E-2,1.1670673E0,-1.1273527E-1,-1.15075015E-1,-1.0941576E0,1.10587314E-1,1.194685E-1,1.1428517E0,-7.6250456E-2,1.0080615E0,-9.5476633E-1,1.0403673E-1,6.288167E-3,-7.278867E-2,1.1963238E-1,1.10758506E-1,-1.0669321E-1,-1.121672E-1,1.15307204E-1,1.0838169E-1,3.3587247E-2,-2.4047472E-2,1.7840688E-1,9.821038E-2,-4.7167078E-2,-1.0196296E-1,-1.903607E-2,6.3569605E-2],"categories":[],"categories_nodes":[],"categories_segments":[],"categories_sizes":[],"default_left":[0,0,0,0,0,0,0,0,0,0,0,0,0,0,0,0,0,0,0,0,0,0,0,0,0,0,0,0,0,0,0,0,0,0,0,0,0,0,0,0,0,0,0,0,0],"id":15,"left_children":[1,-1,3,5,7,9,11,13,15,17,-1,19,21,23,25,27,-1,29,31,-1,-1,33,-1,-1,35,37,39,41,43,-1,-1,-1,-1,-1,-1,-1,-1,-1,-1,-1,-1,-1,-1,-1,-1],"loss_changes":[7.100443E4,0E0,1.6032055E4,4.8527367E4,4.4377348E4,1.3129071E4,2.4953125E1,9.0752344E2,3.47404E3,1.857795E4,0E0,3.1367188E0,9.412793E1,6.4570312E0,1.6402471E3,2.8537207E3,0E0,1.01248125E4,2.2009766E1,0E0,0E0,6.604492E0,0E0,0E0,8.8916016E-1,1.1595884E2,1.5033203E2,1.4133691E2,9.1079584E2,0E0,0E0,0E0,0E0,0E0,0E0,0E0,0E0,0E0,0E0,0E0,0E0,0E0,0E0,0E0,0E0],"parents":[2147483647,0,0,2,2,3,3,4,4,5,5,6,6,7,7,8,8,9,9,11,11,12,12,13,13,14,14,15,15,17,17,18,18,21,21,24,24,25,25,26,26,27,27,28,28],"right_children":[2,-1,4,6,8,10,12,14,16,18,-1,20,22,24,26,28,-1,30,32,-1,-1,34,-1,-1,36,38,40,42,44,-1,-1,-1,-1,-1,-1,-1,-1,-1,-1,-1,-1,-1,-1,-1,-1],"split_conditions":[-1.5032642E0,1.0378132E-1,-2.5970346E-1,-2.5970542E-1,-2.5747362E-1,1.8826001E-3,4.4006005E-1,-2.5964516E-1,-1.2925036E-1,6.829756E-1,-1.1213632E-1,1.9714451E-1,-2.5970376E-1,4.4006005E-1,3.1860226E-1,3.1860226E-1,-1.14259005E-1,4.4006005E-1,1.1688067E0,-1.1273527E-1,-1.15075015E-1,1.8826001E-3,1.10587314E-1,1.194685E-1,-2.596614E-1,-2.5930825E-1,4.4006005E-1,-2.551964E-1,-2.3621395E-1,6.288167E-3,-7.278867E-2,1.1963238E-1,1.10758506E-1,-1.0669321E-1,-1.121672E-1,1.15307204E-1,1.0838169E-1,3.3587247E-2,-2.4047472E-2,1.7840688E-1,9.821038E-2,-4.7167078E-2,-1.0196296E-1,-1.903607E-2,6.3569605E-2],"split_indices":[1,0,3,3,3,2,1,3,3,1,0,1,3,1,1,1,0,1,1,0,0,2,0,0,3,3,1,3,3,0,0,0,0,0,0,0,0,0,0,0,0,0,0,0,0],"split_type":[0,0,0,0,0,0,0,0,0,0,0,0,0,0,0,0,0,0,0,0,0,0,0,0,0,0,0,0,0,0,0,0,0,0,0,0,0,0,0,0,0,0,0,0,0],"sum_hessian":[2.965499E5,5.386118E4,2.4268872E5,1.9027206E5,5.241665E4,1.329606E5,5.7311477E4,2.9562252E4,2.2854398E4,1.2270096E5,1.0259625E4,4.6879027E4,1.0432451E4,2.0302086E4,9.260167E3,1.0342135E4,1.2512263E4,1.0929336E5,1.3407609E4,1.0461113E4,3.6417914E4,1.0413721E4,1.873007E1,1.6757986E4,3.5440984E3,1.7111316E3,7.549035E3,4.524838E3,5.8172974E3,8.952799E4,1.9765361E4,8.974409E3,4.4331997E3,5.254341E3,5.1593804E3,3.0052825E3,5.388159E2,4.8727167E2,1.22386E3,2.42153E2,7.3068823E3,5.3659546E2,3.9882424E3,3.7444902E3,2.072807E3],"tree_param":{"num_deleted":"0","num_feature":"4","num_nodes":"45","size_leaf_vector":"1"}},{"base_weights":[-6.9577305E-4,1.0102969E-1,-2.1784545E-1,-3.1924155E-1,4.0761232E-1,-2.5916848E-1,-1.1086322E-1,1.0403181E0,-6.615528E-1,-3.0851197E-1,1.9668321E-1,5.6257874E-1,1.0536509E0,-1.2754826E-1,-7.518139E-1,-2.6165798E-1,-6.606932E-2,1.17416084E-1,-6.1821115E-1,6.5094864E-1,-1.0048113E0,1.1631054E-1,1.0060489E0,8.216667E-3,-3.707139E-2,-7.0151806E-2,-9.0192974E-1,-2.9698133E-2,1.4673387E-2,-7.498775E-2,1.0847998E-1,4.4036176E-2,1.0714894E-1,-2.046932E-2,-1.1991413E-1,8.229038E-2,1.0319566E-1,-7.264455E-2,-9.327521E-2],"categories":[],"categories_nodes":[],"categories_segments":[],"categories_sizes":[],"default_left":[0,0,0,0,0,0,0,0,0,0,0,0,0,0,0,0,0,0,0,0,0,0,0,0,0,0,0,0,0,0,0,0,0,0,0,0,0,0,0],"id":16,"left_children":[1,-1,3,5,7,9,-1,11,13,15,17,19,21,23,25,27,-1,-1,29,31,33,-1,35,-1,-1,-1,37,-1,-1,-1,-1,-1,-1,-1,-1,-1,-1,-1,-1],"loss_changes":[6.192852E4,0E0,1.4726715E4,9.475316E3,2.191407E4,4.1768135E3,0E0,1.2903711E2,5.804082E2,2.764624E3,1.4447758E4,7.748404E1,1.01978516E2,8.889385E1,7.715039E1,2.13333E3,0E0,0E0,2.2188567E3,4.6083527E1,4.4187737E0,0E0,6.465039E1,0E0,0E0,0E0,1.3287842E1,0E0,0E0,0E0,0E0,0E0,0E0,0E0,0E0,0E0,0E0,0E0,0E0],"parents":[2147483647,0,0,2,2,3,3,4,4,5,5,7,7,8,8,9,9,10,10,11,11,12,12,13,13,14,14,15,15,18,18,19,19,20,20,22,22,26,26],"right_children":[2,-1,4,6,8,10,-1,12,14,16,18,20,22,24,26,28,-1,-1,30,32,34,-1,36,-1,-1,-1,38,-1,-1,-1,-1,-1,-1,-1,-1,-1,-1,-1,-1],"split_conditions":[-1.5032642E0,1.0102969E-1,-2.1124615E-1,1.8826001E-3,1.0354749E0,6.829756E-1,-1.1086322E-1,-4.648125E-2,2.9083025E0,4.4006005E-1,-3.238355E-1,-8.767247E-2,-1.2603487E0,1.3924655E0,3.1860226E-1,3.1860226E-1,-6.606932E-2,1.17416084E-1,-2.3596089E-1,-9.0418555E-2,-8.2180314E-2,1.1631054E-1,2.8030246E-1,8.216667E-3,-3.707139E-2,-7.0151806E-2,3.627776E0,-2.9698133E-2,1.4673387E-2,-7.498775E-2,1.0847998E-1,4.4036176E-2,1.0714894E-1,-2.046932E-2,-1.1991413E-1,8.229038E-2,1.0319566E-1,-7.264455E-2,-9.327521E-2],"split_indices":[1,0,0,2,0,1,0,0,0,1,0,0,1,0,1,1,0,0,0,0,0,0,0,0,0,0,0,0,0,0,0,0,0,0,0,0,0,0,0],"split_type":[0,0,0,0,0,0,0,0,0,0,0,0,0,0,0,0,0,0,0,0,0,0,0,0,0,0,0,0,0,0,0,0,0,0,0,0,0,0,0],"sum_hessian":[2.820853E5,4.987528E4,2.3221003E5,1.9981716E5,3.2392871E4,1.8568756E5,1.41296E4,2.0350166E4,1.2042703E4,1.6755134E5,1.8136213E4,5.5368854E2,1.9796479E4,1.7415747E3,1.0301129E4,1.478793E5,1.9672041E4,8.245353E3,9.89086E3,5.24691E2,2.8997536E1,5.992974E3,1.3803504E4,9.35461E2,8.061138E2,7.7201797E3,2.580949E3,1.3610716E5,1.177215E4,9.181559E3,7.0930176E2,3.5098267E2,1.7370834E2,6.0678024E0,2.2929733E1,1.7147096E3,1.2088795E4,3.892663E2,2.1916826E3],"tree_param":{"num_deleted":"0","num_feature":"4","num_nodes":"39","size_leaf_vector":"1"}},{"base_weights":[7.189576E-4,9.84657E-2,-1.9981563E-1,-3.2290453E-1,2.6410586E-1,-7.920254E-3,-1.115441E0,1.0415329E0,-7.603478E-1,6.998884E-2,-1.097064E-1,-1.1265991E0,-1.0622327E0,1.1666878E0,7.5681293E-1,-3.440073E-1,-1.1224842E-1,-4.1102193E-2,1.1307173E0,-1.1104206E-1,-1.13116585E-1,-1.0663279E0,1.0838132E-1,1.1751721E-1,1.1246877E0,-2.9217063E-2,9.604297E-1,-9.045065E-1,8.3194874E-2,7.929828E-3,-5.8865942E-2,1.1548429E-1,1.08234935E-1,-1.0310786E-1,-1.1012141E-1,1.1351508E-1,1.0586627E-1,2.0708326E-1,-5.3138016E-3,1.6488701E-1,9.357922E-2,-9.880062E-2,-4.014465E-2,-1.8047405E-2,5.766697E-2],"categories":[],"categories_nodes":[],"categories_segments":[],"categories_sizes":[],"default_left":[0,0,0,0,0,0,0,0,0,0,0,0,0,0,0,0,0,0,0,0,0,0,0,0,0,0,0,0,0,0,0,0,0,0,0,0,0,0,0,0,0,0,0,0,0],"id":17,"left_children":[1,-1,3,5,7,9,11,13,15,17,-1,19,21,23,25,27,-1,29,31,-1,-1,33,-1,-1,35,37,39,41,43,-1,-1,-1,-1,-1,-1,-1,-1,-1,-1,-1,-1,-1,-1,-1,-1],"loss_changes":[5.394544E4,0E0,1.2969005E4,4.4807258E4,3.792972E4,1.0899021E4,2.9113281E1,9.639629E2,3.0976416E3,1.4125174E4,0E0,1.859375E0,7.908301E1,5.3808594E0,1.3237314E3,2.2891763E3,0E0,7.153475E3,1.2010742E1,0E0,0E0,9.749023E0,0E0,0E0,9.975586E-1,8.564169E1,1.0987744E2,1.7329443E2,7.0610144E2,0E0,0E0,0E0,0E0,0E0,0E0,0E0,0E0,0E0,0E0,0E0,0E0,0E0,0E0,0E0,0E0],"parents":[2147483647,0,0,2,2,3,3,4,4,5,5,6,6,7,7,8,8,9,9,11,11,12,12,13,13,14,14,15,15,17,17,18,18,21,21,24,24,25,25,26,26,27,27,28,28],"right_children":[2,-1,4,6,8,10,12,14,16,18,-1,20,22,24,26,28,-1,30,32,-1,-1,34,-1,-1,36,38,40,42,44,-1,-1,-1,-1,-1,-1,-1,-1,-1,-1,-1,-1,-1,-1,-1,-1],"split_conditions":[-1.5032642E0,9.84657E-2,-2.5970346E-1,-2.5970542E-1,-2.5747362E-1,1.8826001E-3,4.4006005E-1,-2.5964516E-1,-1.2925036E-1,6.829756E-1,-1.097064E-1,1.9714451E-1,-2.5970376E-1,4.4006005E-1,3.1860226E-1,3.1860226E-1,-1.1224842E-1,4.4006005E-1,1.1688067E0,-1.1104206E-1,-1.13116585E-1,1.2902644E0,1.0838132E-1,1.1751721E-1,-2.596614E-1,1.9714451E-1,4.4006005E-1,-2.3621395E-1,-2.3621395E-1,7.929828E-3,-5.8865942E-2,1.1548429E-1,1.08234935E-1,-1.0310786E-1,-1.1012141E-1,1.1351508E-1,1.0586627E-1,2.0708326E-1,-5.3138016E-3,1.6488701E-1,9.357922E-2,-9.880062E-2,-4.014465E-2,-1.8047405E-2,5.766697E-2],"split_indices":[1,0,3,3,3,2,1,3,3,1,0,1,3,1,1,1,0,1,1,0,0,1,0,0,3,1,1,3,3,0,0,0,0,0,0,0,0,0,0,0,0,0,0,0,0],"split_type":[0,0,0,0,0,0,0,0,0,0,0,0,0,0,0,0,0,0,0,0,0,0,0,0,0,0,0,0,0,0,0,0,0,0,0,0,0,0,0,0,0,0,0,0,0],"sum_hessian":[2.7339753E5,4.628632E4,2.2711122E5,1.7948902E5,4.7622203E4,1.2844219E5,5.104682E4,2.7075445E4,2.0546758E4,1.1986863E5,8.573558E3,4.2181055E4,8.865767E3,1.8805828E4,8.269617E3,9.558969E3,1.0987789E4,1.08505695E5,1.13629375E4,9.339362E3,3.284169E4,8.849383E3,1.6383968E1,1.5622948E4,3.1828801E3,1.7016245E3,6.5679927E3,4.133977E3,5.424991E3,8.894806E4,1.9557629E4,7.5661274E3,3.7968098E3,4.4169766E3,4.4324062E3,2.7335017E3,4.4937836E2,1.8200615E1,1.683424E3,2.2465344E2,6.3433394E3,3.544658E3,5.893192E2,3.5361973E3,1.8887942E3],"tree_param":{"num_deleted":"0","num_feature":"4","num_nodes":"45","size_leaf_vector":"1"}},{"base_weights":[-8.738456E-4,9.5734626E-2,-1.8924862E-1,-3.0294538E-1,2.5528994E-1,-8.219776E-3,-1.1013995E0,1.0150839E0,-7.3260003E-1,6.283514E-2,-1.0869547E-1,-1.1129525E0,-1.0463685E0,1.1472722E0,7.251728E-1,-3.2287762E-1,-1.1094829E-1,-3.8315408E-2,1.1140884E0,-1.0987934E-1,-1.11693434E-1,-1.0499979E0,1.0575781E-1,1.1549669E-1,1.1094785E0,-2.317628E-2,9.311832E-1,-8.792127E-1,7.676794E-2,7.1936026E-3,-5.4605573E-2,1.13792814E-1,1.06534176E-1,-1.0096625E-1,-1.09053865E-1,1.1201098E-1,1.0435405E-1,1.8459947E-1,-4.310339E-3,1.5480785E-1,9.081524E-2,-3.4340665E-2,-9.546939E-2,-1.6256122E-2,5.3827364E-2],"categories":[],"categories_nodes":[],"categories_segments":[],"categories_sizes":[],"default_left":[0,0,0,0,0,0,0,0,0,0,0,0,0,0,0,0,0,0,0,0,0,0,0,0,0,0,0,0,0,0,0,0,0,0,0,0,0,0,0,0,0,0,0,0,0],"id":18,"left_children":[1,-1,3,5,7,9,11,13,15,17,-1,19,21,23,25,27,-1,29,31,-1,-1,33,-1,-1,35,37,39,41,43,-1,-1,-1,-1,-1,-1,-1,-1,-1,-1,-1,-1,-1,-1,-1,-1],"loss_changes":[4.708696E4,0E0,1.101865E4,4.0853477E4,3.332868E4,9.719301E3,2.8589844E1,9.610332E2,2.9805332E3,1.2650271E4,0E0,9.53125E-1,6.3250977E1,3.7304688E0,1.2122339E3,2.0567969E3,0E0,6.075164E3,1.0923828E1,0E0,0E0,1.2183594E1,0E0,0E0,8.930664E-1,6.3336117E1,8.619336E1,1.5607568E2,5.947902E2,0E0,0E0,0E0,0E0,0E0,0E0,0E0,0E0,0E0,0E0,0E0,0E0,0E0,0E0,0E0,0E0],"parents":[2147483647,0,0,2,2,3,3,4,4,5,5,6,6,7,7,8,8,9,9,11,11,12,12,13,13,14,14,15,15,17,17,18,18,21,21,24,24,25,25,26,26,27,27,28,28],"right_children":[2,-1,4,6,8,10,12,14,16,18,-1,20,22,24,26,28,-1,30,32,-1,-1,34,-1,-1,36,38,40,42,44,-1,-1,-1,-1,-1,-1,-1,-1,-1,-1,-1,-1,-1,-1,-1,-1],"split_conditions":[-1.5032642E0,9.5734626E-2,-2.5970346E-1,-2.5970542E-1,-2.5747362E-1,1.8826001E-3,4.4006005E-1,-2.5964516E-1,-1.2925036E-1,6.829756E-1,-1.0869547E-1,1.9714451E-1,-2.5970376E-1,4.4006005E-1,3.1860226E-1,3.1860226E-1,-1.1094829E-1,4.4006005E-1,1.1688067E0,-1.0987934E-1,-1.11693434E-1,1.2902644E0,1.0575781E-1,1.1549669E-1,-2.596614E-1,1.9714451E-1,1.1688067E0,-2.551964E-1,-2.3621395E-1,7.1936026E-3,-5.4605573E-2,1.13792814E-1,1.06534176E-1,-1.0096625E-1,-1.09053865E-1,1.1201098E-1,1.0435405E-1,1.8459947E-1,-4.310339E-3,1.5480785E-1,9.081524E-2,-3.4340665E-2,-9.546939E-2,-1.6256122E-2,5.3827364E-2],"split_indices":[1,0,3,3,3,2,1,3,3,1,0,1,3,1,1,1,0,1,1,0,0,1,0,0,3,1,1,3,3,0,0,0,0,0,0,0,0,0,0,0,0,0,0,0,0],"split_type":[0,0,0,0,0,0,0,0,0,0,0,0,0,0,0,0,0,0,0,0,0,0,0,0,0,0,0,0,0,0,0,0,0,0,0,0,0,0,0,0,0,0,0,0,0],"sum_hessian":[2.608611E5,4.285636E4,2.1800473E5,1.736036E5,4.440115E4,1.2680012E5,4.6803477E4,2.5098027E4,1.930312E4,1.18964984E5,7.8351323E3,3.8666742E4,8.1367363E3,1.7236082E4,7.8619463E3,9.249512E3,1.0053607E4,1.0852388E5,1.0441098E4,8.547822E3,3.0118918E4,8.123224E3,1.3512267E1,1.4295953E4,2.9401284E3,1.6972906E3,6.164656E3,3.866236E3,5.383276E3,8.916363E4,1.9360256E4,6.9968887E3,3.4442085E3,4.0849043E3,4.0383198E3,2.5181357E3,4.2199246E2,1.6937202E1,1.6803534E3,2.1948189E2,5.945174E3,4.7808484E2,3.3881514E3,3.5453594E3,1.8379165E3],"tree_param":{"num_deleted":"0","num_feature":"4","num_nodes":"45","size_leaf_vector":"1"}},{"base_weights":[1.611718E-3,9.33833E-2,-1.7601551E-1,-2.67621E-1,4.387981E-1,-1.9650386E-1,-8.708395E-1,1.0106602E0,-5.4739267E-1,-2.5032547E-1,1.1230631E-1,-6.0507566E-1,-1.07849315E-1,1.1429769E-1,9.491639E-1,-8.640081E-2,-6.3056386E-1,-2.169798E-1,-4.8869543E-2,-7.2043496E-1,1.0152955E0,6.82025E-1,9.922943E-1,9.247183E-3,-2.9653845E-2,-5.6800194E-2,-8.2476586E-1,-2.4623798E-2,1.5245591E-2,-1.08092204E-1,-3.9836388E-2,6.0340356E-2,1.0789684E-1,7.378398E-2,-3.638849E-2,9.437113E-2,1.06703974E-1,-6.561734E-2,-8.549773E-2],"categories":[],"categories_nodes":[],"categories_segments":[],"categories_sizes":[],"default_left":[0,0,0,0,0,0,0,0,0,0,0,0,0,0,0,0,0,0,0,0,0,0,0,0,0,0,0,0,0,0,0,0,0,0,0,0,0,0,0],"id":19,"left_children":[1,-1,3,5,7,9,11,13,15,17,-1,19,-1,-1,21,23,25,27,-1,29,31,33,35,-1,-1,-1,37,-1,-1,-1,-1,-1,-1,-1,-1,-1,-1,-1,-1],"loss_changes":[4.122764E4,0E0,1.1778355E4,7.807954E3,1.5294959E4,1.1563742E4,1.0586602E3,1.3859375E2,3.8161206E2,1.2433516E3,0E0,1.5749644E3,0E0,0E0,1.3441797E2,5.7259575E1,1.0198755E2,1.4834736E3,0E0,9.12437E2,1.4039307E1,9.560474E1,3.564453E1,0E0,0E0,0E0,9.893433E0,0E0,0E0,0E0,0E0,0E0,0E0,0E0,0E0,0E0,0E0,0E0,0E0],"parents":[2147483647,0,0,2,2,3,3,4,4,5,5,6,6,7,7,8,8,9,9,11,11,14,14,15,15,16,16,17,17,19,19,20,20,21,21,22,22,26,26],"right_children":[2,-1,4,6,8,10,12,14,16,18,-1,20,-1,-1,22,24,26,28,-1,30,32,34,36,-1,-1,-1,38,-1,-1,-1,-1,-1,-1,-1,-1,-1,-1,-1,-1],"split_conditions":[-1.5032642E0,9.33833E-2,-2.1124615E-1,-3.238355E-1,1.0354749E0,6.829756E-1,1.8826001E-3,-1.2603487E0,2.9083025E0,4.4006005E-1,1.1230631E-1,-2.3596089E-1,-1.07849315E-1,1.1429769E-1,2.446034E-1,1.3924655E0,3.1860226E-1,3.1860226E-1,-4.8869543E-2,-3.1559724E-1,-2.332148E-1,1.3750622E-1,9.4760025E-1,9.247183E-3,-2.9653845E-2,-5.6800194E-2,3.627776E0,-2.4623798E-2,1.5245591E-2,-1.08092204E-1,-3.9836388E-2,6.0340356E-2,1.0789684E-1,7.378398E-2,-3.638849E-2,9.437113E-2,1.06703974E-1,-6.561734E-2,-8.549773E-2],"split_indices":[1,0,0,0,0,1,2,1,0,1,0,0,0,0,0,0,1,1,0,0,0,0,0,0,0,0,0,0,0,0,0,0,0,0,0,0,0,0,0],"split_type":[0,0,0,0,0,0,0,0,0,0,0,0,0,0,0,0,0,0,0,0,0,0,0,0,0,0,0,0,0,0,0,0,0,0,0,0,0,0,0],"sum_hessian":[2.4897542E5,3.9846938E4,2.091285E5,1.8201008E5,2.7118422E4,1.6281602E5,1.9194059E4,1.716496E4,9.953463E3,1.564362E5,6.3798037E3,8.420746E3,1.0773313E4,5.440803E3,1.1724157E4,1.5216227E3,8.43184E3,1.3723961E5,1.9196592E4,7.861609E3,5.5913696E2,1.6321079E3,1.0092049E4,8.222607E2,6.9936194E2,6.3803457E3,2.0514944E3,1.27168586E5,1.0071031E4,3.7084578E3,4.153151E3,7.626499E1,4.82872E2,1.5497029E3,8.240497E1,6.1247256E3,3.9673232E3,3.1520963E2,1.7362848E3],"tree_param":{"num_deleted":"0","num_feature":"4","num_nodes":"39","size_leaf_vector":"1"}},{"base_weights":[3.6228762E-4,9.087871E-1,-1.6357249E-1,9.085966E-2,1.04958735E-1,-2.4626835E-1,4.1759923E-1,-1.800299E-1,-8.4335965E-1,9.8560053E-1,-5.19172E-1,-2.2828266E-1,1.1099559E-1,-5.665707E-1,-1.0704517E-1,1.127496E-1,9.2046195E-1,-8.829184E-2,-5.994498E-1,-4.546051E-3,-2.7368227E-1,-1.0725756E-1,-2.0244989E-1,6.469496E-1,9.6628755E-1,7.7303383E-3,-2.8078575E-2,-5.3617465E-1,-7.984386E-1,-8.301004E-2,-2.3304155E-2,1.0295432E-1,-5.2459538E-2,7.0848346E-2,-1.9307964E-2,9.118455E-2,1.05189815E-1,8.0536656E-2,-5.3746145E-2,-6.319695E-2,-8.297234E-2],"categories":[],"categories_nodes":[],"categories_segments":[],"categories_sizes":[],"default_left":[0,0,0,0,0,0,0,0,0,0,0,0,0,0,0,0,0,0,0,0,0,0,0,0,0,0,0,0,0,0,0,0,0,0,0,0,0,0,0,0,0],"id":20,"left_children":[1,3,5,-1,-1,7,9,11,13,15,17,19,-1,21,-1,-1,23,25,27,-1,29,-1,31,33,35,-1,-1,37,39,-1,-1,-1,-1,-1,-1,-1,-1,-1,-1,-1,-1],"loss_changes":[3.6037734E4,3.7109375E-2,9.852325E3,0E0,0E0,7.0976104E3,1.3587947E4,1.0055492E4,1.1258008E3,1.4590039E2,3.3338428E2,1.292456E3,0E0,1.488229E3,0E0,0E0,1.3600781E2,4.8316887E1,1.0188135E2,0E0,2.8206074E3,0E0,1.8655448E3,8.1153625E1,4.254883E1,0E0,0E0,1.1080688E1,9.674683E0,0E0,0E0,0E0,0E0,0E0,0E0,0E0,0E0,0E0,0E0,0E0,0E0],"parents":[2147483647,0,0,1,1,2,2,5,5,6,6,7,7,8,8,9,9,10,10,11,11,13,13,16,16,17,17,18,18,20,20,22,22,23,23,24,24,27,27,28,28],"right_children":[2,4,6,-1,-1,8,10,12,14,16,18,20,-1,22,-1,-1,24,26,28,-1,30,-1,32,34,36,-1,-1,38,40,-1,-1,-1,-1,-1,-1,-1,-1,-1,-1,-1,-1],"split_conditions":[-1.5032642E0,-3.238355E-1,-2.1124615E-1,9.085966E-2,1.04958735E-1,-3.238355E-1,1.0354749E0,6.829756E-1,1.8826001E-3,-1.2603487E0,2.9083025E0,-1.2603487E0,1.1099559E-1,-3.1559724E-1,-1.0704517E-1,1.127496E-1,2.446034E-1,1.3924655E0,3.1860226E-1,-4.546051E-3,1.9714451E-1,-1.0725756E-1,-2.5243738E-1,1.237758E-1,9.4760025E-1,7.7303383E-3,-2.8078575E-2,3.627776E0,3.627776E0,-8.301004E-2,-2.3304155E-2,1.0295432E-1,-5.2459538E-2,7.0848346E-2,-1.9307964E-2,9.118455E-2,1.05189815E-1,8.0536656E-2,-5.3746145E-2,-6.319695E-2,-8.297234E-2],"split_indices":[1,0,0,0,0,0,0,1,2,1,0,1,0,0,0,0,0,0,1,0,1,0,0,0,0,0,0,0,0,0,0,0,0,0,0,0,0,0,0,0,0],"split_type":[0,0,0,0,0,0,0,0,0,0,0,0,0,0,0,0,0,0,0,0,0,0,0,0,0,0,0,0,0,0,0,0,0,0,0,0,0,0,0,0,0],"sum_hessian":[2.4198802E5,3.699273E4,2.0499528E5,3.6950195E4,4.2533947E1,1.7946019E5,2.5535102E4,1.615409E5,1.7919273E4,1.5896423E4,9.63868E3,1.5571703E5,5.8238755E3,8.07754E3,9.841734E3,4.99632E3,1.0900103E4,1.5140922E3,8.1245874E3,3.0976814E4,1.2474022E5,3.3793872E3,4.698153E3,1.5663545E3,9.333748E3,8.14235E2,6.998572E2,6.167212E3,1.9573756E3,8.489518E3,1.162507E5,9.73389E2,3.7247637E3,1.459593E3,1.0676159E2,5.712606E3,3.6211426E3,5.31096E0,6.161901E3,3.130116E2,1.644364E3],"tree_param":{"num_deleted":"0","num_feature":"4","num_nodes":"41","size_leaf_vector":"1"}},{"base_weights":[1.4703468E-3,8.861591E-1,-1.499718E-1,8.859405E-2,1.0418021E-1,-2.2564217E-1,4.0405223E-1,-1.8101837E-1,-1.06327735E-1,9.595064E-1,-4.7700265E-1,-1.6458017E-1,-1.065249E-1,1.1138598E-1,8.903601E-1,-6.985572E-2,-5.5618787E-1,-2.0699355E-1,5.000092E-1,5.990272E-1,9.40785E-1,9.086669E-3,-2.6054054E-2,-4.9858607E-2,-7.42517E-1,-1.7597971E-2,-4.2916525E-2,1.0823504E-1,-4.8708245E-2,6.666397E-2,-9.939021E-3,8.820542E-2,1.0348538E-1,-5.463619E-2,-7.8082636E-2],"categories":[],"categories_nodes":[],"categories_segments":[],"categories_sizes":[],"default_left":[0,0,0,0,0,0,0,0,0,0,0,0,0,0,0,0,0,0,0,0,0,0,0,0,0,0,0,0,0,0,0,0,0,0,0],"id":21,"left_children":[1,3,5,-1,-1,7,9,11,-1,13,15,17,-1,-1,19,21,23,25,27,29,31,-1,-1,-1,33,-1,-1,-1,-1,-1,-1,-1,-1,-1,-1],"loss_changes":[3.1507842E4,2.5E-1,8.418146E3,0E0,0E0,6.603383E3,1.1809399E4,2.437856E3,0E0,1.5696875E2,3.007942E2,4.641828E3,0E0,0E0,1.4966406E2,4.662104E1,8.347095E1,1.0665254E3,5.6792764E3,7.1445984E1,4.723828E1,0E0,0E0,0E0,1.3419617E1,0E0,0E0,0E0,0E0,0E0,0E0,0E0,0E0,0E0,0E0],"parents":[2147483647,0,0,1,1,2,2,5,5,6,6,7,7,9,9,10,10,11,11,14,14,15,15,16,16,17,17,18,18,19,19,20,20,24,24],"right_children":[2,4,6,-1,-1,8,10,12,-1,14,16,18,-1,-1,20,22,24,26,28,30,32,-1,-1,-1,34,-1,-1,-1,-1,-1,-1,-1,-1,-1,-1],"split_conditions":[-1.5032642E0,-3.238355E-1,-2.1124615E-1,8.859405E-2,1.0418021E-1,1.8826001E-3,1.0354749E0,1.2902644E0,-1.06327735E-1,-1.2603487E0,2.9083025E0,6.829756E-1,-1.065249E-1,1.1138598E-1,2.446034E-1,1.3924655E0,3.1860226E-1,4.4006005E-1,-2.5243738E-1,1.1279148E-1,9.4760025E-1,9.086669E-3,-2.6054054E-2,-4.9858607E-2,3.627776E0,-1.7597971E-2,-4.2916525E-2,1.0823504E-1,-4.8708245E-2,6.666397E-2,-9.939021E-3,8.820542E-2,1.0348538E-1,-5.463619E-2,-7.8082636E-2],"split_indices":[1,0,0,0,0,2,0,1,0,1,0,1,0,0,0,0,1,1,0,0,0,0,0,0,0,0,0,0,0,0,0,0,0,0,0],"split_type":[0,0,0,0,0,0,0,0,0,0,0,0,0,0,0,0,0,0,0,0,0,0,0,0,0,0,0,0,0,0,0,0,0,0,0],"sum_hessian":[2.351677E5,3.4371688E4,2.0079602E5,3.4330168E4,4.1518505E1,1.7666689E5,2.4129137E4,1.677324E5,8.934486E3,1.4799082E4,9.330055E3,1.6467227E5,3.060136E3,4.573864E3,1.0225218E4,1.519438E3,7.810617E3,1.5479416E5,9.878108E3,1.510587E3,8.714631E3,8.2477985E2,6.946582E2,5.9690264E3,1.8415905E3,1.3583428E5,1.8959871E4,6.212756E3,3.6653523E3,1.3772988E3,1.332882E2,5.371422E3,3.343209E3,3.033927E2,1.5381978E3],"tree_param":{"num_deleted":"0","num_feature":"4","num_nodes":"35","size_leaf_vector":"1"}},{"base_weights":[2.3480998E-3,8.6015895E-2,-1.3601379E-1,3.63512E-2,-4.0042976E-1,8.796573E-2,-1.0564637E-1,-1.0802084E0,2.7892146E-1,1.926842E-2,1.0675511E0,-1.0940721E0,-9.986761E-1,9.980549E-1,-7.1999055E-1,1.0652082E-1,-3.8912836E-2,1.0882404E-1,1.02795295E-1,-1.07804276E-1,-1.09831885E-1,-1.0032104E0,1.03798546E-1,1.1374531E0,6.456318E-1,-3.331337E-1,-1.0947362E0,8.812814E-3,1.9559635E-1,-9.4875716E-2,-1.05886064E-1,1.1462362E-1,1.0886826E-1,7.2306157E-3,8.583089E-2,-8.1247225E-2,2.0219719E-3,-1.0804542E-1,-1.1200803E-1],"categories":[],"categories_nodes":[],"categories_segments":[],"categories_sizes":[],"default_left":[0,0,0,0,0,0,0,0,0,0,0,0,0,0,0,0,0,0,0,0,0,0,0,0,0,0,0,0,0,0,0,0,0,0,0,0,0,0,0],"id":22,"left_children":[1,-1,3,5,7,9,-1,11,13,15,17,19,21,23,25,27,-1,-1,-1,-1,-1,29,-1,31,33,35,37,-1,-1,-1,-1,-1,-1,-1,-1,-1,-1,-1,-1],"loss_changes":[2.7217893E4,0E0,8.999964E3,6.743031E3,3.598775E4,7.6819697E3,0E0,4.29375E1,2.799964E4,3.8012305E3,5.010742E0,1.078125E0,5.342285E1,1.1126016E3,2.3649111E3,2.9897324E3,0E0,0E0,0E0,0E0,0E0,1.614746E1,0E0,5.7089844E0,7.8342773E2,1.3599963E3,1.7900391E0,0E0,0E0,0E0,0E0,0E0,0E0,0E0,0E0,0E0,0E0,0E0,0E0],"parents":[2147483647,0,0,2,2,3,3,4,4,5,5,7,7,8,8,9,9,10,10,11,11,12,12,13,13,14,14,15,15,21,21,23,23,24,24,25,25,26,26],"right_children":[2,-1,4,6,8,10,-1,12,14,16,18,20,22,24,26,28,-1,-1,-1,-1,-1,30,-1,32,34,36,38,-1,-1,-1,-1,-1,-1,-1,-1,-1,-1,-1,-1],"split_conditions":[-1.5032642E0,8.6015895E-2,-2.5970542E-1,1.8826001E-3,-2.5970346E-1,6.829756E-1,-1.0564637E-1,4.4006005E-1,-2.5747362E-1,4.4006005E-1,1.1688067E0,1.9714451E-1,-2.5970376E-1,-2.5964516E-1,-1.2925036E-1,3.1860226E-1,-3.8912836E-2,1.0882404E-1,1.02795295E-1,-1.07804276E-1,-1.09831885E-1,1.2902644E0,1.03798546E-1,4.4006005E-1,3.1860226E-1,3.1860226E-1,3.1860226E-1,8.812814E-3,1.9559635E-1,-9.4875716E-2,-1.05886064E-1,1.1462362E-1,1.0886826E-1,7.2306157E-3,8.583089E-2,-8.1247225E-2,2.0219719E-3,-1.0804542E-1,-1.1200803E-1],"split_indices":[1,0,3,2,3,1,0,1,3,1,1,1,3,3,3,1,0,0,0,0,0,1,0,1,1,1,1,0,0,0,0,0,0,0,0,0,0,0,0],"split_type":[0,0,0,0,0,0,0,0,0,0,0,0,0,0,0,0,0,0,0,0,0,0,0,0,0,0,0,0,0,0,0,0,0,0,0,0,0,0,0],"sum_hessian":[2.2932039E5,3.1850383E4,1.9747002E5,1.1954379E5,7.792623E4,1.14153164E5,5.390626E3,3.8950562E4,3.897566E4,1.066733E5,7.4798677E3,3.3279367E4,5.671195E3,2.2661365E4,1.6314295E4,8.78955E4,1.8777797E4,4.895553E3,2.5843145E3,7.02355E3,2.6255818E4,5.659103E3,1.2091627E1,1.62368E4,6.424566E3,8.0283594E3,8.285936E3,8.703102E4,8.6447437E2,2.8694348E3,2.7896685E3,1.3739887E4,2.496913E3,1.7387252E3,4.685841E3,3.4062886E3,4.622071E3,5.327437E3,2.9584985E3],"tree_param":{"num_deleted":"0","num_feature":"4","num_nodes":"39","size_leaf_vector":"1"}},{"base_weights":[-4.7009187E-5,8.3591086E-1,-1.3052964E-1,8.356588E-2,1.02518916E-1,-2.0005347E-1,4.1352043E-1,-1.4401156E-1,-8.043478E-1,9.365835E-1,-3.985079E-1,-1.8043786E-1,1.0791004E-1,-5.371332E-1,-1.0513391E-1,1.1009153E-1,8.6012477E-1,-5.7492238E-2,-4.6686742E-1,-3.752534E-3,-2.1778011E-1,-6.645878E-1,1.016336E0,5.591054E-1,9.1298825E-1,7.5354963E-3,-2.1600163E-2,-3.9877456E-2,-6.939563E-1,-7.654267E-2,-1.8203886E-2,-1.0525551E-1,-4.047833E-2,5.9025783E-2,1.08305864E-1,6.0467716E-2,-2.0338047E-2,8.496428E-2,1.0190256E-1,-5.3101856E-2,-7.262168E-2],"categories":[],"categories_nodes":[],"categories_segments":[],"categories_sizes":[],"default_left":[0,0,0,0,0,0,0,0,0,0,0,0,0,0,0,0,0,0,0,0,0,0,0,0,0,0,0,0,0,0,0,0,0,0,0,0,0,0,0,0,0],"id":23,"left_children":[1,3,5,-1,-1,7,9,11,13,15,17,19,-1,21,-1,-1,23,25,27,-1,29,31,33,35,37,-1,-1,-1,39,-1,-1,-1,-1,-1,-1,-1,-1,-1,-1,-1,-1],"loss_changes":[2.3959453E4,5.605469E-1,7.1866523E3,0E0,0E0,5.7052607E3,9.144616E3,6.8691533E3,9.430752E2,1.6358203E2,1.9661462E2,7.989751E2,0E0,1.3608545E3,0E0,0E0,1.41771E2,2.9701344E1,1.0837671E2,0E0,2.3232378E3,6.395676E2,1.4180359E1,4.6623566E1,5.020996E1,0E0,0E0,0E0,8.127502E0,0E0,0E0,0E0,0E0,0E0,0E0,0E0,0E0,0E0,0E0,0E0,0E0],"parents":[2147483647,0,0,1,1,2,2,5,5,6,6,7,7,8,8,9,9,10,10,11,11,13,13,16,16,17,17,18,18,20,20,21,21,22,22,23,23,24,24,28,28],"right_children":[2,4,6,-1,-1,8,10,12,14,16,18,20,-1,22,-1,-1,24,26,28,-1,30,32,34,36,38,-1,-1,-1,40,-1,-1,-1,-1,-1,-1,-1,-1,-1,-1,-1,-1],"split_conditions":[-1.5032642E0,-3.238355E-1,-2.1124615E-1,8.356588E-2,1.02518916E-1,-3.238355E-1,1.0354749E0,6.829756E-1,1.8826001E-3,-1.2603487E0,2.9083025E0,-1.2603487E0,1.0791004E-1,-2.3596089E-1,-1.0513391E-1,1.1009153E-1,2.446034E-1,1.3924655E0,3.1860226E-1,-3.752534E-3,1.9714451E-1,-3.1559724E-1,-2.332148E-1,1.3750622E-1,9.4760025E-1,7.5354963E-3,-2.1600163E-2,-3.9877456E-2,3.627776E0,-7.654267E-2,-1.8203886E-2,-1.0525551E-1,-4.047833E-2,5.9025783E-2,1.08305864E-1,6.0467716E-2,-2.0338047E-2,8.496428E-2,1.0190256E-1,-5.3101856E-2,-7.262168E-2],"split_indices":[1,0,0,0,0,0,0,1,2,1,0,1,0,0,0,0,0,0,1,0,1,0,0,0,0,0,0,0,0,0,0,0,0,0,0,0,0,0,0,0,0],"split_type":[0,0,0,0,0,0,0,0,0,0,0,0,0,0,0,0,0,0,0,0,0,0,0,0,0,0,0,0,0,0,0,0,0,0,0,0,0,0,0,0,0],"sum_hessian":[2.1965234E5,2.9655328E4,1.8999702E5,2.96213E4,3.4026722E1,1.6846908E5,2.1527932E4,1.5417245E5,1.4296627E4,1.3093609E4,8.434322E3,1.4971456E5,4.4578965E3,6.8687026E3,7.427925E3,4.153386E3,8.940224E3,1.4087131E3,7.025609E3,3.1015836E4,1.1869872E5,6.348418E3,5.202846E2,1.337231E3,7.6029927E3,7.666804E2,6.420327E2,5.407054E3,1.6185548E3,7.270826E3,1.114279E5,2.5449622E3,3.8034558E3,7.177685E1,4.4850775E2,1.2620109E3,7.5220024E1,4.765283E3,2.8377092E3,2.7038474E2,1.34817E3],"tree_param":{"num_deleted":"0","num_feature":"4","num_nodes":"41","size_leaf_vector":"1"}},{"base_weights":[1.060832E-3,8.1043893E-1,-1.1828476E-1,8.101642E-2,1.0177039E-1,3.8984932E-2,-3.797948E-1,-2.7295843E-2,1.1201259E0,-1.067501E0,2.7912837E-1,1.6007477E-2,-1.034957E0,1.0790235E0,1.4230706E-1,-1.0686969E0,1.2934524E0,9.772715E-1,-6.936022E-1,-2.6293648E-2,1.0709615E-1,-1.0438665E-1,-1.3511144E-1,1.0903455E-1,1.0584024E-1,-1.0802032E0,-9.163925E-1,8.717856E-2,1.8206146E-1,1.1250194E0,5.9596467E-1,-3.134005E-1,-1.0856625E0,4.130726E-3,-3.2840576E-2,4.116766E-2,-2.182927E-1,-1.08274184E-1,-1.0471996E-1,1.4950755E-1,-1.0423966E-1,1.1309935E-1,1.0413324E-1,-2.8766546E-2,1.0819433E-1,-1.0918659E-1,8.3821684E-2,-1.136657E-1,-1.0633667E-1],"categories":[],"categories_nodes":[],"categories_segments":[],"categories_sizes":[],"default_left":[0,0,0,0,0,0,0,0,0,0,0,0,0,0,0,0,0,0,0,0,0,0,0,0,0,0,0,0,0,0,0,0,0,0,0,0,0,0,0,0,0,0,0,0,0,0,0,0,0],"id":24,"left_children":[1,3,5,-1,-1,7,9,11,13,15,17,19,21,23,-1,25,27,29,31,33,-1,-1,35,-1,-1,37,39,-1,-1,41,43,45,47,-1,-1,-1,-1,-1,-1,-1,-1,-1,-1,-1,-1,-1,-1,-1,-1],"loss_changes":[2.0694979E4,7.421875E-1,7.6790293E3,0E0,0E0,8.355062E3,3.1774135E4,4.7937847E3,8.2328125E1,9.8265625E1,2.4318992E4,4.7006714E3,3.6149902E1,2.3095703E-1,0E0,5.9109375E1,2.3749142E0,1.1738223E3,2.2300513E3,2.0683564E3,0E0,0E0,5.187772E1,0E0,0E0,1.5390625E0,7.354878E2,0E0,0E0,6.3320312E0,2.5013547E3,6.812219E3,7.166992E0,0E0,0E0,0E0,0E0,0E0,0E0,0E0,0E0,0E0,0E0,0E0,0E0,0E0,0E0,0E0,0E0],"parents":[2147483647,0,0,1,1,2,2,5,5,6,6,7,7,8,8,9,9,10,10,11,11,12,12,13,13,15,15,16,16,17,17,18,18,19,19,22,22,25,25,26,26,29,29,30,30,31,31,32,32],"right_children":[2,4,6,-1,-1,8,10,12,14,16,18,20,22,24,-1,26,28,30,32,34,-1,-1,36,-1,-1,38,40,-1,-1,42,44,46,48,-1,-1,-1,-1,-1,-1,-1,-1,-1,-1,-1,-1,-1,-1,-1,-1],"split_conditions":[-1.5032642E0,-3.238355E-1,-2.5970542E-1,8.101642E-2,1.0177039E-1,-2.332148E-1,-2.5970346E-1,-3.238355E-1,3.627776E0,-2.1124615E-1,-2.5747362E-1,6.829756E-1,-2.8264427E-1,-1.2603487E0,1.4230706E-1,-3.1834334E-1,7.7185106E-1,-2.5964516E-1,-1.2925036E-1,4.4006005E-1,1.0709615E-1,-1.0438665E-1,-2.3596089E-1,1.0903455E-1,1.0584024E-1,-3.238355E-1,-2.1399222E-1,8.717856E-2,1.8206146E-1,-2.3596089E-1,-1.01402886E-1,-2.1766517E-2,1.3924655E0,4.130726E-3,-3.2840576E-2,4.116766E-2,-2.182927E-1,-1.08274184E-1,-1.0471996E-1,1.4950755E-1,-1.0423966E-1,1.1309935E-1,1.0413324E-1,-2.8766546E-2,1.0819433E-1,-1.0918659E-1,8.3821684E-2,-1.136657E-1,-1.0633667E-1],"split_indices":[1,0,3,0,0,0,3,0,0,0,3,1,0,1,0,0,0,3,3,1,0,0,0,0,0,0,0,0,0,0,0,0,0,0,0,0,0,0,0,0,0,0,0,0,0,0,0,0,0],"split_type":[0,0,0,0,0,0,0,0,0,0,0,0,0,0,0,0,0,0,0,0,0,0,0,0,0,0,0,0,0,0,0,0,0,0,0,0,0,0,0,0,0,0,0,0,0,0,0,0,0],"sum_hessian":[2.1424125E5,2.7530316E4,1.8671094E5,2.749878E4,3.1537638E1,1.1659353E5,7.01174E4,1.0985943E5,6.734102E3,3.430905E4,3.580835E4,1.0533379E5,4.525639E3,5.933613E3,8.004893E2,3.4292227E4,1.6824282E1,2.0846502E4,1.4961848E4,1.0127392E5,4.0598662E3,4.481111E3,4.452836E1,3.797003E3,2.1366099E3,3.1877832E4,2.414395E3,1.0821837E1,6.002444E0,1.502334E4,5.8231626E3,7.5967104E3,7.365137E3,8.2757E4,1.8516924E4,3.577502E1,8.753336E0,2.957134E4,2.306492E3,1.19352844E2,2.2950422E3,1.4010672E4,1.01266815E3,2.066379E3,3.7567834E3,4.53274E3,3.0639705E3,2.225356E3,5.139781E3],"tree_param":{"num_deleted":"0","num_feature":"4","num_nodes":"49","size_leaf_vector":"1"}},{"base_weights":[1.9066599E-3,7.8562003E-1,-1.1044674E-1,7.853409E-2,1.0086622E-1,-7.743601E-2,-1.0415824E-1,-1.3688824E-1,3.9848796E-1,-1.243552E-1,-1.0425913E-1,9.028282E-1,-3.6816192E-1,-1.4861919E-1,3.6182088E-1,1.08095825E-1,8.269445E-1,-5.999029E-2,-4.3178818E-1,-1.2607983E-2,-3.0342868E-2,1.04585685E-1,-7.244145E-2,7.568576E-2,9.937749E-2,6.198508E-3,-2.0664817E-2,-3.70786E-2,-6.4223886E-2],"categories":[],"categories_nodes":[],"categories_segments":[],"categories_sizes":[],"default_left":[0,0,0,0,0,0,0,0,0,0,0,0,0,0,0,0,0,0,0,0,0,0,0,0,0,0,0,0,0],"id":25,"left_children":[1,3,5,-1,-1,7,-1,9,11,13,-1,15,17,19,21,-1,23,25,27,-1,-1,-1,-1,-1,-1,-1,-1,-1,-1],"loss_changes":[1.8073996E4,8.105469E-1,5.518098E3,0E0,0E0,4.905812E3,0E0,1.7494082E3,7.4448384E3,1.7934307E3,0E0,1.5609375E2,1.4979285E2,5.0521118E2,5.3705015E3,0E0,9.452783E1,2.342432E1,8.106494E1,0E0,0E0,0E0,0E0,0E0,0E0,0E0,0E0,0E0,0E0],"parents":[2147483647,0,0,1,1,2,2,5,5,7,7,8,8,9,9,11,11,12,12,13,13,14,14,16,16,17,17,18,18],"right_children":[2,4,6,-1,-1,8,-1,10,12,14,-1,16,18,20,22,-1,24,26,28,-1,-1,-1,-1,-1,-1,-1,-1,-1,-1],"split_conditions":[-1.5032642E0,-3.238355E-1,1.8826001E-3,7.853409E-2,1.0086622E-1,-2.3596089E-1,-1.0415824E-1,1.2902644E0,1.0354749E0,6.829756E-1,-1.0425913E-1,-1.2603487E0,2.9083025E0,4.4006005E-1,-2.5243738E-1,1.08095825E-1,9.4760025E-1,1.3924655E0,3.1860226E-1,-1.2607983E-2,-3.0342868E-2,1.04585685E-1,-7.244145E-2,7.568576E-2,9.937749E-2,6.198508E-3,-2.0664817E-2,-3.70786E-2,-6.4223886E-2],"split_indices":[1,0,2,0,0,0,0,1,0,1,0,1,0,1,0,0,0,0,1,0,0,0,0,0,0,0,0,0,0],"split_type":[0,0,0,0,0,0,0,0,0,0,0,0,0,0,0,0,0,0,0,0,0,0,0,0,0,0,0,0,0],"sum_hessian":[2.0526103E5,2.573592E4,1.7952511E5,2.5708271E4,2.7648592E1,1.7337953E5,6.1455884E3,1.5412678E5,1.9252744E4,1.5202422E5,2.102561E3,1.1612976E4,7.639768E3,1.4479834E5,7.2258774E3,3.4652878E3,8.147688E3,1.3077358E3,6.332032E3,1.2639743E5,1.8400914E4,4.4338086E3,2.792069E3,5.741268E3,2.4064197E3,7.1426166E2,5.934742E2,4.911209E3,1.4208232E3],"tree_param":{"num_deleted":"0","num_feature":"4","num_nodes":"29","size_leaf_vector":"1"}},{"base_weights":[3.0053654E-3,7.6432616E-1,-1.0054613E-1,7.640196E-2,1.0031698E-1,-7.013295E-2,-1.0374359E-1,-1.23570405E-1,3.7917158E-1,-1.1205448E-1,-1.0382958E-1,8.770067E-1,-3.4009853E-1,-1.01163864E-1,-1.0580621E-1,1.0726023E-1,7.962844E-1,-5.1209126E-2,-4.0158322E-1,-1.3373573E-2,8.283383E-2,7.225881E-2,9.779168E-2,5.2005206E-3,-1.7586706E-2,-3.4237385E-2,-6.0851764E-2],"categories":[],"categories_nodes":[],"categories_segments":[],"categories_sizes":[],"default_left":[0,0,0,0,0,0,0,0,0,0,0,0,0,0,0,0,0,0,0,0,0,0,0,0,0,0,0],"id":26,"left_children":[1,3,5,-1,-1,7,-1,9,11,13,-1,15,17,19,-1,-1,21,23,25,-1,-1,-1,-1,-1,-1,-1,-1],"loss_changes":[1.5859907E4,9.9902344E-1,5.045874E3,0E0,0E0,4.118249E3,0E0,1.6146458E3,6.528674E3,1.5595737E3,0E0,1.6926562E2,1.324519E2,4.5313164E3,0E0,0E0,1.0143701E2,1.6863113E1,7.513403E1,0E0,0E0,0E0,0E0,0E0,0E0,0E0,0E0],"parents":[2147483647,0,0,1,1,2,2,5,5,7,7,8,8,9,9,11,11,12,12,13,13,16,16,17,17,18,18],"right_children":[2,4,6,-1,-1,8,-1,10,12,14,-1,16,18,20,-1,-1,22,24,26,-1,-1,-1,-1,-1,-1,-1,-1],"split_conditions":[-1.5032642E0,-3.238355E-1,1.8826001E-3,7.640196E-2,1.0031698E-1,-2.3596089E-1,-1.0374359E-1,1.2902644E0,1.0354749E0,-2.3870696E-1,-1.0382958E-1,-1.2603487E0,2.9083025E0,6.829756E-1,-1.0580621E-1,1.0726023E-1,9.4760025E-1,1.3924655E0,3.1860226E-1,-1.3373573E-2,8.283383E-2,7.225881E-2,9.779168E-2,5.2005206E-3,-1.7586706E-2,-3.4237385E-2,-6.0851764E-2],"split_indices":[1,0,2,0,0,0,0,1,0,0,0,1,0,1,0,0,0,0,1,0,0,0,0,0,0,0,0],"split_type":[0,0,0,0,0,0,0,0,0,0,0,0,0,0,0,0,0,0,0,0,0,0,0,0,0,0,0],"sum_hessian":[2.0117422E5,2.4085904E4,1.7708831E5,2.4059217E4,2.6685715E1,1.7152148E5,5.56683E3,1.5329077E5,1.8230717E4,1.5138602E5,1.9047511E3,1.0773638E4,7.457078E3,1.4966417E5,1.7218547E3,3.1437769E3,7.6298613E3,1.3089121E3,6.148166E3,1.4459798E5,5.066185E3,5.4311724E3,2.198689E3,7.163616E2,5.9255054E2,4.782439E3,1.3657273E3],"tree_param":{"num_deleted":"0","num_feature":"4","num_nodes":"27","size_leaf_vector":"1"}},{"base_weights":[2.0894578E-3,7.3662855E-2,-9.237868E-2,5.6626655E-2,-3.6417568E-1,8.992368E-2,-1.0332735E-1,-1.0569108E0,2.840889E-1,4.5893554E-2,1.028381E0,-1.0711477E0,-9.5162064E-1,9.338584E-1,-7.446385E-1,1.0981914E-1,-2.5811184E-2,1.0527171E-1,9.856293E-2,-1.056662E-1,-1.0747434E-1,-9.574582E-1,9.958657E-2,1.1128029E0,5.059468E-1,-3.7710014E-1,-1.0811337E0,9.28666E-3,1.8096952E-1,-8.839141E-2,-1.0349411E-1,1.1215454E-1,1.0562978E-1,9.183228E-3,7.390852E-2,-8.353879E-2,-3.924827E-3,-1.0592194E-1,-1.1178479E-1],"categories":[],"categories_nodes":[],"categories_segments":[],"categories_sizes":[],"default_left":[0,0,0,0,0,0,0,0,0,0,0,0,0,0,0,0,0,0,0,0,0,0,0,0,0,0,0,0,0,0,0,0,0,0,0,0,0,0,0],"id":27,"left_children":[1,-1,3,5,7,9,-1,11,13,15,17,19,21,23,25,27,-1,-1,-1,-1,-1,29,-1,31,33,35,37,-1,-1,-1,-1,-1,-1,-1,-1,-1,-1,-1,-1],"loss_changes":[1.3692591E4,0E0,7.0809204E3,4.098395E3,2.7802941E4,4.5279966E3,0E0,4.384375E1,2.137911E4,2.03423E3,4.0722656E0,2.3828125E-1,4.158252E1,1.5004277E3,1.530876E3,2.4921797E3,0E0,0E0,0E0,0E0,0E0,1.9392578E1,0E0,5.642578E0,5.581581E2,9.1647675E2,4.0166016E0,0E0,0E0,0E0,0E0,0E0,0E0,0E0,0E0,0E0,0E0,0E0,0E0],"parents":[2147483647,0,0,2,2,3,3,4,4,5,5,7,7,8,8,9,9,10,10,11,11,12,12,13,13,14,14,15,15,21,21,23,23,24,24,25,25,26,26],"right_children":[2,-1,4,6,8,10,-1,12,14,16,18,20,22,24,26,28,-1,-1,-1,-1,-1,30,-1,32,34,36,38,-1,-1,-1,-1,-1,-1,-1,-1,-1,-1,-1,-1],"split_conditions":[-1.5032642E0,7.3662855E-2,-2.5970542E-1,1.8826001E-3,-2.5970346E-1,6.829756E-1,-1.0332735E-1,4.4006005E-1,-2.551964E-1,4.4006005E-1,1.1688067E0,1.9714451E-1,-2.5970376E-1,-2.5964516E-1,-1.2925036E-1,3.1860226E-1,-2.5811184E-2,1.0527171E-1,9.856293E-2,-1.056662E-1,-1.0747434E-1,1.2902644E0,9.958657E-2,4.4006005E-1,3.1860226E-1,3.1860226E-1,3.1860226E-1,9.28666E-3,1.8096952E-1,-8.839141E-2,-1.0349411E-1,1.1215454E-1,1.0562978E-1,9.183228E-3,7.390852E-2,-8.353879E-2,-3.924827E-3,-1.0592194E-1,-1.1178479E-1],"split_indices":[1,0,3,2,3,1,0,1,3,1,1,1,3,3,3,1,0,0,0,0,0,1,0,1,1,1,1,0,0,0,0,0,0,0,0,0,0,0,0],"split_type":[0,0,0,0,0,0,0,0,0,0,0,0,0,0,0,0,0,0,0,0,0,0,0,0,0,0,0,0,0,0,0,0,0,0,0,0,0,0,0],"sum_hessian":[1.9732447E5,2.2485008E4,1.7483947E5,1.1292964E5,6.1909824E4,1.0958275E5,3.3468936E3,2.9928072E4,3.198175E4,1.04672805E5,4.909944E3,2.635525E4,3.5728232E3,1.9601227E4,1.2380523E4,8.6487125E4,1.8185684E4,3.1137996E3,1.7961445E3,5.299673E3,2.1055576E4,3.5626526E3,1.01706085E1,1.3820258E4,5.780969E3,5.9183267E3,6.462197E3,8.5634164E4,8.529589E2,1.8341488E3,1.7285038E3,1.1952154E4,1.8681033E3,2.0827883E3,3.698181E3,2.5108914E3,3.4074353E3,4.065431E3,2.3967659E3],"tree_param":{"num_deleted":"0","num_feature":"4","num_nodes":"39","size_leaf_vector":"1"}},{"base_weights":[-7.2605035E-4,7.091619E-1,-8.879895E-2,7.088136E-2,9.90187E-2,4.8509188E-2,-3.5761008E-1,-2.5627918E-3,1.1063821E0,-1.0488322E0,2.747276E-1,2.790858E-2,-1.0234816E0,1.05704725E-1,1.390227E-1,-1.0504152E0,1.2764628E0,9.0317166E-1,-7.129158E-1,-7.019864E-4,1.0473838E-1,-1.0182575E0,-2.5523487E-1,-1.0627176E0,-8.644467E-1,8.878331E-2,1.8175171E-1,1.0994265E0,4.6052864E-1,-3.4451553E-1,-1.0730182E0,-9.844975E-4,1.3668992E-1,-1.0268209E-1,1.254803E-1,-1.0647597E-1,-1.0307697E-1,1.4259414E-1,-1.0204553E-1,1.1053776E-1,1.0018533E-1,-3.5115402E-2,1.12697996E-1,-1.10450424E-1,7.045188E-2,-1.1249169E-1,-1.0473182E-1],"categories":[],"categories_nodes":[],"categories_segments":[],"categories_sizes":[],"default_left":[0,0,0,0,0,0,0,0,0,0,0,0,0,0,0,0,0,0,0,0,0,0,0,0,0,0,0,0,0,0,0,0,0,0,0,0,0,0,0,0,0,0,0,0,0,0,0],"id":28,"left_children":[1,3,5,-1,-1,7,9,11,13,15,17,19,21,-1,-1,23,25,27,29,31,-1,33,-1,35,37,-1,-1,39,41,43,45,-1,-1,-1,-1,-1,-1,-1,-1,-1,-1,-1,-1,-1,-1,-1,-1],"loss_changes":[1.188688E4,1.3525391E0,6.2429336E3,0E0,0E0,6.048636E3,2.4995354E4,3.322428E3,7.073291E1,1.0191016E2,1.8537664E4,3.0248457E3,2.2122803E1,0E0,0E0,6.1546875E1,2.3895817E0,1.5850938E3,1.5404141E3,1.2613523E3,0E0,6.1366455E1,0E0,5.703125E-1,6.0870337E2,0E0,0E0,6.236328E0,3.0342583E3,4.5790215E3,6.654785E0,0E0,0E0,0E0,0E0,0E0,0E0,0E0,0E0,0E0,0E0,0E0,0E0,0E0,0E0,0E0,0E0],"parents":[2147483647,0,0,1,1,2,2,5,5,6,6,7,7,8,8,9,9,10,10,11,11,12,12,15,15,16,16,17,17,18,18,19,19,21,21,23,23,24,24,27,27,28,28,29,29,30,30],"right_children":[2,4,6,-1,-1,8,10,12,14,16,18,20,22,-1,-1,24,26,28,30,32,-1,34,-1,36,38,-1,-1,40,42,44,46,-1,-1,-1,-1,-1,-1,-1,-1,-1,-1,-1,-1,-1,-1,-1,-1],"split_conditions":[-1.5032642E0,-3.238355E-1,-2.5970542E-1,7.088136E-2,9.90187E-2,-2.332148E-1,-2.5970346E-1,-3.238355E-1,2.9083025E0,-2.1124615E-1,-2.551964E-1,6.829756E-1,-2.3596089E-1,1.05704725E-1,1.390227E-1,-3.1834334E-1,7.7185106E-1,-2.5964516E-1,-1.2925036E-1,-2.597055E-1,1.0473838E-1,-2.496913E-1,-2.5523487E-1,-3.238355E-1,-2.1399222E-1,8.878331E-2,1.8175171E-1,-2.3596089E-1,-1.01402886E-1,1.2652189E-1,1.3924655E0,-9.844975E-4,1.3668992E-1,-1.0268209E-1,1.254803E-1,-1.0647597E-1,-1.0307697E-1,1.4259414E-1,-1.0204553E-1,1.1053776E-1,1.0018533E-1,-3.5115402E-2,1.12697996E-1,-1.10450424E-1,7.045188E-2,-1.1249169E-1,-1.0473182E-1],"split_indices":[1,0,3,0,0,0,3,0,0,0,3,1,0,0,0,0,0,3,3,3,0,0,0,0,0,0,0,0,0,0,0,0,0,0,0,0,0,0,0,0,0,0,0,0,0,0,0],"split_type":[0,0,0,0,0,0,0,0,0,0,0,0,0,0,0,0,0,0,0,0,0,0,0,0,0,0,0,0,0,0,0,0,0,0,0,0,0,0,0,0,0,0,0,0,0,0,0],"sum_hessian":[1.9012148E5,2.0983396E4,1.691381E5,2.0960936E4,2.2461246E1,1.11953375E5,5.718472E4,1.0679836E5,5.155013E3,2.7319988E4,2.9864732E4,1.0370408E5,3.0942837E3,4.3957197E3,7.5929315E2,2.730195E4,1.8038544E1,1.8251357E4,1.1613374E4,1.0087414E5,2.829934E3,3.085407E3,8.876804E0,2.5603498E4,1.6984524E3,1.2034971E1,6.0035734E0,1.2643929E4,5.607429E3,5.741514E3,5.87186E3,1.0020522E5,6.689212E2,3.0743728E3,1.1034039E1,2.4034734E4,1.5687632E3,1.07792435E2,1.5906599E3,1.1907362E4,7.3656665E2,2.5284539E3,3.078975E3,3.3294158E3,2.4120981E3,1.9305378E3,3.941322E3],"tree_param":{"num_deleted":"0","num_feature":"4","num_nodes":"47","size_leaf_vector":"1"}},{"base_weights":[1.2991196E-3,6.836797E-1,-8.1073835E-2,6.83532E-2,9.21199E-2,4.621498E-2,-3.500188E-1,7.348455E-2,-1.0269566E-1,-1.0417321E0,2.7095312E-1,3.6537237E-2,1.0151381E0,-1.0576039E-1,-9.25772E-1,9.2328286E-1,-6.528197E-1,9.2538185E-2,-2.3125207E-2,1.0426023E-1,9.6702516E-2,-9.3149364E-1,9.584709E-2,1.0880067E0,5.107735E-1,-2.9236987E-1,-1.0653242E0,7.74558E-3,1.6561417E-1,-8.412253E-2,-1.0278523E-1,1.0958824E-1,1.0367074E-1,1.4209959E-2,7.208141E-2,-6.920821E-2,-2.9942035E-4,-1.04775086E-1,-1.0942699E-1],"categories":[],"categories_nodes":[],"categories_segments":[],"categories_sizes":[],"default_left":[0,0,0,0,0,0,0,0,0,0,0,0,0,0,0,0,0,0,0,0,0,0,0,0,0,0,0,0,0,0,0,0,0,0,0,0,0,0,0],"id":29,"left_children":[1,3,5,-1,-1,7,9,11,-1,13,15,17,19,-1,21,23,25,27,-1,-1,-1,29,-1,31,33,35,37,-1,-1,-1,-1,-1,-1,-1,-1,-1,-1,-1,-1],"loss_changes":[1.030085E4,6.347656E-2,5.597857E3,0E0,0E0,3.248178E3,2.2563691E4,3.7658076E3,0E0,4.4757812E1,1.6681406E4,1.5619705E3,4.3916016E0,0E0,3.3233154E1,1.101915E3,1.70327E3,2.0313308E3,0E0,0E0,0E0,2.5153076E1,0E0,3.5478516E0,3.5857507E2,7.0740894E2,1.5712891E0,0E0,0E0,0E0,0E0,0E0,0E0,0E0,0E0,0E0,0E0,0E0,0E0],"parents":[2147483647,0,0,1,1,2,2,5,5,6,6,7,7,9,9,10,10,11,11,12,12,14,14,15,15,16,16,17,17,21,21,23,23,24,24,25,25,26,26],"right_children":[2,4,6,-1,-1,8,10,12,-1,14,16,18,20,-1,22,24,26,28,-1,-1,-1,30,-1,32,34,36,38,-1,-1,-1,-1,-1,-1,-1,-1,-1,-1,-1,-1],"split_conditions":[-1.5032642E0,-2.5970554E-1,-2.5970542E-1,6.83532E-2,9.21199E-2,1.8826001E-3,-2.5970346E-1,6.829756E-1,-1.0269566E-1,4.4006005E-1,-2.5747362E-1,4.4006005E-1,1.1688067E0,-1.0576039E-1,-2.5970376E-1,-2.5964516E-1,-1.2925036E-1,3.1860226E-1,-2.3125207E-2,1.0426023E-1,9.6702516E-2,1.8826001E-3,9.584709E-2,4.4006005E-1,3.1860226E-1,3.1860226E-1,4.4006005E-1,7.74558E-3,1.6561417E-1,-8.412253E-2,-1.0278523E-1,1.0958824E-1,1.0367074E-1,1.4209959E-2,7.208141E-2,-6.920821E-2,-2.9942035E-4,-1.04775086E-1,-1.0942699E-1],"split_indices":[1,3,3,0,0,2,3,1,0,1,3,1,1,0,3,3,3,1,0,0,0,2,0,1,1,1,1,0,0,0,0,0,0,0,0,0,0,0,0],"split_type":[0,0,0,0,0,0,0,0,0,0,0,0,0,0,0,0,0,0,0,0,0,0,0,0,0,0,0,0,0,0,0,0,0,0,0,0,0,0,0],"sum_hessian":[1.8325548E5,1.9737986E4,1.635175E5,1.9729588E4,8.397754E0,1.1098859E5,5.2528906E4,1.0823914E5,2.7494539E3,2.4848725E4,2.7680182E4,1.0415355E5,4.0855955E3,2.1849963E4,2.9987612E3,1.622369E4,1.1456491E4,8.614027E4,1.8013273E4,2.587766E3,1.4978293E3,2.990187E3,8.574311E0,1.1592799E4,4.6308916E3,6.114927E3,5.341565E3,8.531835E4,8.2192426E2,1.5489073E3,1.4412795E3,1.003223E4,1.5605684E3,1.6813604E3,2.9495312E3,2.5673186E3,3.547608E3,3.3468508E3,1.994714E3],"tree_param":{"num_deleted":"0","num_feature":"4","num_nodes":"39","size_leaf_vector":"1"}},{"base_weights":[1.6740501E-3,1.3220789E-1,-3.4451702E-1,9.652151E-2,1.0951128E0,-1.034706E0,2.59395E-1,1.1991265E-1,-1.0145788E0,1.0500061E-1,1.33049E0,-1.036925E0,1.3496559E0,8.6151016E-1,-6.7175233E-1,1.1326898E-2,1.2775536E-1,-1.02436624E-1,-4.0228266E-1,9.4233245E-2,1.335007E-1,-1.0505831E-1,-8.3098876E-1,1.8045263E-1,8.782928E-2,1.0764114E0,4.229294E-1,-3.1246018E-1,-1.0590113E0,1.017999E-1,-1.0132976E0,1.476451E-1,-1.0249883E-1,1.0823823E0,9.7870743E-1,-3.2934362E-1,1.1208762E0,-1.090425E0,6.6885126E-1,-1.0998633E0,-1.03824E-1,-2.2577183E-1,-4.1103095E-2,1.08789526E-1,1.055401E-1,1.0242575E-1,9.42915E-2,-2.144811E-3,-1.3210003E-1,1.0568982E-1,1.7550252E-1,-1.08389355E-1,-3.2241532E-1,9.941145E-2,2.4406908E-2,-1.0549128E-1,-1.13989174E-1],"categories":[],"categories_nodes":[],"categories_segments":[],"categories_sizes":[],"default_left":[0,0,0,0,0,0,0,0,0,0,0,0,0,0,0,0,0,0,0,0,0,0,0,0,0,0,0,0,0,0,0,0,0,0,0,0,0,0,0,0,0,0,0,0,0,0,0,0,0,0,0,0,0,0,0,0,0],"id":30,"left_children":[1,3,5,7,9,11,13,15,17,-1,19,21,23,25,27,-1,-1,-1,29,-1,-1,-1,31,-1,-1,33,35,37,39,-1,41,-1,-1,43,45,47,49,51,53,55,-1,-1,-1,-1,-1,-1,-1,-1,-1,-1,-1,-1,-1,-1,-1,-1,-1],"loss_changes":[8.011114E3,4.423615E3,2.023283E4,3.2264314E3,4.7446777E1,1.2124805E2,1.4515691E4,9.349133E2,1.4926758E1,0E0,3.2592773E-2,6.2783203E1,3.0240936E0,1.4814648E3,1.4143501E3,0E0,0E0,0E0,3.7407784E1,0E0,0E0,0E0,6.337804E2,0E0,0E0,5.0966797E0,2.716044E3,4.0282246E3,3.0097656E0,0E0,2.1413507E1,0E0,0E0,3.28125E-1,4.1992188E-2,7.602417E2,1.070083E2,3.7520996E1,3.2216895E2,1.7346191E0,0E0,0E0,0E0,0E0,0E0,0E0,0E0,0E0,0E0,0E0,0E0,0E0,0E0,0E0,0E0,0E0,0E0],"parents":[2147483647,0,0,1,1,2,2,3,3,4,4,5,5,6,6,7,7,8,8,10,10,11,11,12,12,13,13,14,14,18,18,22,22,25,25,26,26,27,27,28,28,30,30,33,33,34,34,35,35,36,36,37,37,38,38,39,39],"right_children":[2,4,6,8,10,12,14,16,18,-1,20,22,24,26,28,-1,-1,-1,30,-1,-1,-1,32,-1,-1,34,36,38,40,-1,42,-1,-1,44,46,48,50,52,54,56,-1,-1,-1,-1,-1,-1,-1,-1,-1,-1,-1,-1,-1,-1,-1,-1,-1],"split_conditions":[-2.5970542E-1,-2.332148E-1,-2.5970346E-1,-3.238355E-1,3.627776E0,-2.1124615E-1,-2.551964E-1,-2.597055E-1,-2.8264427E-1,1.0500061E-1,-2.5970554E-1,-3.1834334E-1,-2.597054E-1,-2.5964516E-1,-1.2925036E-1,1.1326898E-2,1.2775536E-1,-1.02436624E-1,-2.5243738E-1,9.4233245E-2,1.335007E-1,-1.0505831E-1,1.8826001E-3,1.8045263E-1,8.782928E-2,-2.3596089E-1,-1.01402886E-1,1.2652189E-1,1.3924655E0,1.017999E-1,-2.496913E-1,1.476451E-1,-1.0249883E-1,-2.5968626E-1,-2.5968683E-1,-3.238355E-1,-2.5747362E-1,-8.2180314E-2,1.0299827E0,-2.1124615E-1,-1.03824E-1,-2.2577183E-1,-4.1103095E-2,1.08789526E-1,1.055401E-1,1.0242575E-1,9.42915E-2,-2.144811E-3,-1.3210003E-1,1.0568982E-1,1.7550252E-1,-1.08389355E-1,-3.2241532E-1,9.941145E-2,2.4406908E-2,-1.0549128E-1,-1.13989174E-1],"split_indices":[3,0,3,0,0,0,3,3,0,0,3,0,3,3,3,0,0,0,0,0,0,0,2,0,0,0,0,0,0,0,0,0,0,3,3,0,3,0,0,0,0,0,0,0,0,0,0,0,0,0,0,0,0,0,0,0,0],"split_type":[0,0,0,0,0,0,0,0,0,0,0,0,0,0,0,0,0,0,0,0,0,0,0,0,0,0,0,0,0,0,0,0,0,0,0,0,0,0,0,0,0,0,0,0,0,0,0,0,0,0,0,0,0,0,0,0,0],"sum_hessian":[1.7727561E5,1.2873556E5,4.854005E4,1.2413603E5,4.5995254E3,2.2651625E4,2.5888428E4,1.2157745E5,2.5585845E3,3.8644238E3,7.3510175E2,2.2631129E4,2.049627E1,1.5722037E4,1.016639E4,1.208848E5,6.926568E2,2.5176672E3,4.0917145E1,1.0867106E1,7.242346E2,2.1219691E4,1.4114376E3,8.991277E0,1.15049925E1,1.0550781E4,5.1712554E3,5.274555E3,4.891835E3,1.2107538E1,2.8809607E1,1.0895162E2,1.3024861E3,9.933631E3,6.171505E2,2.4890227E3,2.682233E3,2.9420464E3,2.3325088E3,1.6313749E3,3.26046E3,8.499332E0,2.0310274E1,8.215631E3,1.7180005E3,2.5940768E2,3.5774286E2,1.9000922E3,5.889304E2,2.4388489E3,2.4338402E2,2.9345713E3,7.4749627E0,1.3202386E3,1.01227026E3,7.813275E2,8.5004736E2],"tree_param":{"num_deleted":"0","num_feature":"4","num_nodes":"57","size_leaf_vector":"1"}},{"base_weights":[2.8845068E-4,6.553237E-1,-7.7709585E-2,6.549841E-2,9.6821785E-2,-4.8723895E-2,-1.0528257E0,-1.15570635E-1,9.6795464E-1,-1.0889057E0,-1.03440106E-1,-1.7908646E-1,4.391389E-1,1.0472181E0,8.549933E-2,-1.0490916E-1,-1.12403475E-1,-1.2857242E-2,-1.0309664E0,1.0434082E0,-7.934809E-1,1.0848207E0,8.707139E-1,7.298865E-1,-2.4524815E-1,9.6053974E-4,-1.00330524E-1,-1.04529105E-1,-8.167079E-2,1.0709985E-1,3.364009E-2,-4.276156E-2,-1.0762242E-1,1.0341537E-1,1.3406712E-1,1.00502186E-1,6.1995484E-2,-1.3350022E-1,8.549758E-2,-1.3604774E-2,-3.2214902E-2],"categories":[],"categories_nodes":[],"categories_segments":[],"categories_sizes":[],"default_left":[0,0,0,0,0,0,0,0,0,0,0,0,0,0,0,0,0,0,0,0,0,0,0,0,0,0,0,0,0,0,0,0,0,0,0,0,0,0,0,0,0],"id":31,"left_children":[1,3,5,-1,-1,7,9,11,13,15,-1,17,19,21,23,-1,-1,25,27,29,31,33,35,37,39,-1,-1,-1,-1,-1,-1,-1,-1,-1,-1,-1,-1,-1,-1,-1,-1],"loss_changes":[8.801416E3,1.3129883E0,4.350909E3,0E0,0E0,1.0160041E4,1.8276367E0,4.9422954E3,6.4502734E2,8.951416E-1,0E0,1.7823006E4,1.0735227E4,5.5223633E1,1.6242097E2,0E0,0E0,2.3430303E3,6.2216797E1,1.8829395E2,4.9003125E2,8.899805E1,4.960388E1,6.789755E1,4.1867886E0,0E0,0E0,0E0,0E0,0E0,0E0,0E0,0E0,0E0,0E0,0E0,0E0,0E0,0E0,0E0,0E0],"parents":[2147483647,0,0,1,1,2,2,5,5,6,6,7,7,8,8,9,9,11,11,12,12,13,13,14,14,17,17,18,18,19,19,20,20,21,21,22,22,23,23,24,24],"right_children":[2,4,6,-1,-1,8,10,12,14,16,-1,18,20,22,24,-1,-1,26,28,30,32,34,36,38,40,-1,-1,-1,-1,-1,-1,-1,-1,-1,-1,-1,-1,-1,-1,-1,-1],"split_conditions":[-1.5032642E0,-3.238355E-1,-1.2925036E-1,6.549841E-2,9.6821785E-2,-2.1124615E-1,1.3924655E0,-2.5970346E-1,-2.1314918E-1,-2.1124615E-1,-1.03440106E-1,-2.5970542E-1,-2.594943E-1,-2.551964E-1,9.4760025E-1,-1.0490916E-1,-1.12403475E-1,-3.238355E-1,-3.1834334E-1,-2.5964516E-1,-2.551964E-1,3.627776E0,1.0299827E0,2.418573E-1,3.627776E0,9.6053974E-4,-1.00330524E-1,-1.04529105E-1,-8.167079E-2,1.0709985E-1,3.364009E-2,-4.276156E-2,-1.0762242E-1,1.0341537E-1,1.3406712E-1,1.00502186E-1,6.1995484E-2,-1.3350022E-1,8.549758E-2,-1.3604774E-2,-3.2214902E-2],"split_indices":[1,0,3,0,0,0,0,3,3,0,0,3,3,3,0,0,0,0,0,3,3,0,0,0,0,0,0,0,0,0,0,0,0,0,0,0,0,0,0,0,0],"split_type":[0,0,0,0,0,0,0,0,0,0,0,0,0,0,0,0,0,0,0,0,0,0,0,0,0,0,0,0,0,0,0,0,0,0,0,0,0,0,0,0,0],"sum_hessian":[1.7226584E5,1.8329072E4,1.5393677E5,1.8312291E4,1.678082E1,1.4949405E5,4.4427163E3,1.4027203E5,9.222018E3,1.4821628E3,2.9605535E3,1.2586124E5,1.4410796E4,8.46178E3,7.602368E2,7.092195E2,7.729434E2,1.05312414E5,2.054883E4,9.670274E3,4.7405215E3,6.9714346E3,1.490346E3,2.5744882E2,5.02788E2,1.0297794E5,2.3344744E3,1.9257457E4,1.2913733E3,9.306578E3,3.6369617E2,2.0675972E3,2.6729246E3,5.8232725E3,1.1481622E3,9.6856793E2,5.21778E2,1.4152737E1,2.432961E2,2.0890657E2,2.938814E2],"tree_param":{"num_deleted":"0","num_feature":"4","num_nodes":"41","size_leaf_vector":"1"}},{"base_weights":[-1.989284E-3,6.245182E-1,-7.432507E-2,6.2437292E-2,8.828266E-2,-4.7349706E-2,-1.0473541E-1,-1.3052386E-1,5.4170203E-1,2.3363218E-2,-1.0239661E0,9.4439375E-1,-1.24805026E-1,4.3464974E-2,-1.01964094E-1,-1.0410376E-1,-9.006446E-1,1.0585843E0,5.395992E-1,-4.3124577E-1,1.0489918E-1,1.1230172E-3,1.00382686E-1,-7.9132445E-2,-1.0219107E-1,1.067235E-1,1.0016878E-1,2.0136233E-2,7.293399E-2,-9.0358633E-4,-6.9412865E-2,1.5979697E-1,5.9944987E-3],"categories":[],"categories_nodes":[],"categories_segments":[],"categories_sizes":[],"default_left":[0,0,0,0,0,0,0,0,0,0,0,0,0,0,0,0,0,0,0,0,0,0,0,0,0,0,0,0,0,0,0,0,0],"id":32,"left_children":[1,3,5,-1,-1,7,-1,9,11,13,15,17,19,21,-1,-1,23,25,27,29,31,-1,-1,-1,-1,-1,-1,-1,-1,-1,-1,-1,-1],"loss_changes":[7.5692656E3,9.765625E-2,3.930143E3,0E0,0E0,7.1382847E3,0E0,1.7553264E4,4.8385327E3,2.2835168E3,3.8552734E1,5.1887695E2,4.7802756E2,3.3078643E3,0E0,0E0,2.9529175E1,3.2451172E0,1.5866797E2,3.2291968E2,2.6046024E2,0E0,0E0,0E0,0E0,0E0,0E0,0E0,0E0,0E0,0E0,0E0,0E0],"parents":[2147483647,0,0,1,1,2,2,5,5,7,7,8,8,9,9,10,10,11,11,12,12,13,13,16,16,17,17,18,18,19,19,20,20],"right_children":[2,4,6,-1,-1,8,-1,10,12,14,16,18,20,22,-1,-1,24,26,28,30,32,-1,-1,-1,-1,-1,-1,-1,-1,-1,-1,-1,-1],"split_conditions":[-1.5032642E0,-2.5970554E-1,-1.2925036E-1,6.2437292E-2,8.828266E-2,-2.5970346E-1,-1.0473541E-1,-2.5970542E-1,-2.5888088E-1,1.8826001E-3,4.4006005E-1,-2.5964516E-1,3.1860226E-1,6.829756E-1,-1.01964094E-1,-1.0410376E-1,1.2902644E0,4.4006005E-1,3.1860226E-1,-2.551964E-1,4.4006005E-1,1.1230172E-3,1.00382686E-1,-7.9132445E-2,-1.0219107E-1,1.067235E-1,1.0016878E-1,2.0136233E-2,7.293399E-2,-9.0358633E-4,-6.9412865E-2,1.5979697E-1,5.9944987E-3],"split_indices":[1,3,3,0,0,3,0,3,3,2,1,3,1,1,0,0,1,1,1,3,1,0,0,0,0,0,0,0,0,0,0,0,0],"split_type":[0,0,0,0,0,0,0,0,0,0,0,0,0,0,0,0,0,0,0,0,0,0,0,0,0,0,0,0,0,0,0,0,0],"sum_hessian":[1.6702022E5,1.728712E4,1.497331E5,1.7280814E4,6.303922E0,1.4569503E5,4.0380667E3,1.2766894E5,1.8026088E4,1.0891101E5,1.8757932E4,1.1236672E4,6.7894155E3,1.068526E5,2.0584058E3,1.647047E4,2.287461E3,8.763045E3,2.4736272E3,2.9084592E3,3.8809563E3,1.0338352E5,3.4690837E3,1.2069413E3,1.0805195E3,7.591122E3,1.1719229E3,8.896945E2,1.5839326E3,1.1164269E3,1.7920323E3,1.1242489E2,3.7685315E3],"tree_param":{"num_deleted":"0","num_feature":"4","num_nodes":"33","size_leaf_vector":"1"}},{"base_weights":[1.3345762E-3,1.0083289E-1,-3.2759157E-1,7.0646085E-2,1.0754747E0,-1.0174143E0,2.4011272E-1,8.814252E-2,-1.0057659E0,1.0393693E0,1.2526904E-1,-1.0198858E0,1.155477E0,8.3579755E-1,-5.707925E-1,8.219135E-2,1.19857766E-1,-1.02032445E-1,-3.538549E-1,6.163724E-2,1.0399671E-1,-1.0366505E-1,-7.8223E-1,1.5849712E-1,8.066756E-1,1.0508676E0,4.0227675E-1,-2.3258226E-1,-1.0426129E0,6.7760968E-3,9.995574E-3,2.753406E-1,-2.2215752E-1,1.4331591E0,-1.0188065E-1,3.3880647E-2,1.0685308E-1,1.0567282E0,9.465575E-1,-2.1649839E-1,1.0381709E0,-1.0092539E0,7.112441E-1,-1.07099764E-1,-1.02780394E-1,-1.7037882E-2,1.19297445E-1,1.4608346E-1,9.5178E-2,1.0633194E-1,1.0247755E-1,9.920507E-2,8.9834414E-2,8.0087455E-3,-1.3574387E-1,1.02190375E-1,1.1133716E-1,-6.75128E-2,-1.0686224E-1,9.753805E-2,1.1058686E-2],"categories":[],"categories_nodes":[],"categories_segments":[],"categories_sizes":[],"default_left":[0,0,0,0,0,0,0,0,0,0,0,0,0,0,0,0,0,0,0,0,0,0,0,0,0,0,0,0,0,0,0,0,0,0,0,0,0,0,0,0,0,0,0,0,0,0,0,0,0,0,0,0,0,0,0,0,0,0,0,0,0],"id":33,"left_children":[1,3,5,7,9,11,13,15,17,19,-1,21,23,25,27,29,-1,-1,31,-1,-1,-1,33,-1,35,37,39,41,43,-1,-1,45,-1,47,-1,-1,-1,49,51,53,55,57,59,-1,-1,-1,-1,-1,-1,-1,-1,-1,-1,-1,-1,-1,-1,-1,-1,-1,-1],"loss_changes":[5.319411E3,3.671359E3,1.4782836E4,2.279688E3,2.268457E1,9.269336E1,1.0003117E4,7.8699634E2,1.8013916E1,1.4770508E-1,0E0,6.7009766E1,1.6920757E0,1.1126797E3,1.399248E3,3.0363037E1,0E0,0E0,5.2110413E1,0E0,0E0,0E0,5.9146643E2,0E0,1.2281094E0,3.8779297E0,1.5585205E3,3.746312E3,4.3823242E-1,0E0,0E0,1.3974359E1,0E0,6.2149048E-2,0E0,0E0,0E0,4.9902344E-1,6.0821533E-2,6.795941E2,1.2514648E0,5.4889404E1,3.6594165E2,0E0,0E0,0E0,0E0,0E0,0E0,0E0,0E0,0E0,0E0,0E0,0E0,0E0,0E0,0E0,0E0,0E0,0E0],"parents":[2147483647,0,0,1,1,2,2,3,3,4,4,5,5,6,6,7,7,8,8,9,9,11,11,12,12,13,13,14,14,15,15,18,18,22,22,24,24,25,25,26,26,27,27,28,28,31,31,33,33,37,37,38,38,39,39,40,40,41,41,42,42],"right_children":[2,4,6,8,10,12,14,16,18,20,-1,22,24,26,28,30,-1,-1,32,-1,-1,-1,34,-1,36,38,40,42,44,-1,-1,46,-1,48,-1,-1,-1,50,52,54,56,58,60,-1,-1,-1,-1,-1,-1,-1,-1,-1,-1,-1,-1,-1,-1,-1,-1,-1,-1],"split_conditions":[-2.5970542E-1,-2.332148E-1,